{"learner":{"attributes":{"scikit_learn":"{\"_estimator_type\": \"regressor\"}"},"feature_names":[],"feature_types":[],"gradient_booster":{"model":{"cats":{"enc":[],"feature_segments":[],"sorted_idx":[]},"gbtree_model_param":{"num_parallel_tree":"1","num_trees":"400"},"iteration_indptr":[0,1,2,3,4,5,6,7,8,9,10,11,12,13,14,15,16,17,18,19,20,21,22,23,24,25,26,27,28,29,30,31,32,33,34,35,36,37,38,39,40,41,42,43,44,45,46,47,48,49,50,51,52,53,54,55,56,57,58,59,60,61,62,63,64,65,66,67,68,69,70,71,72,73,74,75,76,77,78,79,80,81,82,83,84,85,86,87,88,89,90,91,92,93,94,95,96,97,98,99,100,101,102,103,104,105,106,107,108,109,110,111,112,113,114,115,116,117,118,119,120,121,122,123,124,125,126,127,128,129,130,131,132,133,134,135,136,137,138,139,140,141,142,143,144,145,146,147,148,149,150,151,152,153,154,155,156,157,158,159,160,161,162,163,164,165,166,167,168,169,170,171,172,173,174,175,176,177,178,179,180,181,182,183,184,185,186,187,188,189,190,191,192,193,194,195,196,197,198,199,200,201,202,203,204,205,206,207,208,209,210,211,212,213,214,215,216,217,218,219,220,221,222,223,224,225,226,227,228,229,230,231,232,233,234,235,236,237,238,239,240,241,242,243,244,245,246,247,248,249,250,251,252,253,254,255,256,257,258,259,260,261,262,263,264,265,266,267,268,269,270,271,272,273,274,275,276,277,278,279,280,281,282,283,284,285,286,287,288,289,290,291,292,293,294,295,296,297,298,299,300,301,302,303,304,305,306,307,308,309,310,311,312,313,314,315,316,317,318,319,320,321,322,323,324,325,326,327,328,329,330,331,332,333,334,335,336,337,338,339,340,341,342,343,344,345,346,347,348,349,350,351,352,353,354,355,356,357,358,359,360,361,362,363,364,365,366,367,368,369,370,371,372,373,374,375,376,377,378,379,380,381,382,383,384,385,386,387,388,389,390,391,392,393,394,395,396,397,398,399,400],"tree_info":[0,0,0,0,0,0,0,0,0,0,0,0,0,0,0,0,0,0,0,0,0,0,0,0,0,0,0,0,0,0,0,0,0,0,0,0,0,0,0,0,0,0,0,0,0,0,0,0,0,0,0,0,0,0,0,0,0,0,0,0,0,0,0,0,0,0,0,0,0,0,0,0,0,0,0,0,0,0,0,0,0,0,0,0,0,0,0,0,0,0,0,0,0,0,0,0,0,0,0,0,0,0,0,0,0,0,0,0,0,0,0,0,0,0,0,0,0,0,0,0,0,0,0,0,0,0,0,0,0,0,0,0,0,0,0,0,0,0,0,0,0,0,0,0,0,0,0,0,0,0,0,0,0,0,0,0,0,0,0,0,0,0,0,0,0,0,0,0,0,0,0,0,0,0,0,0,0,0,0,0,0,0,0,0,0,0,0,0,0,0,0,0,0,0,0,0,0,0,0,0,0,0,0,0,0,0,0,0,0,0,0,0,0,0,0,0,0,0,0,0,0,0,0,0,0,0,0,0,0,0,0,0,0,0,0,0,0,0,0,0,0,0,0,0,0,0,0,0,0,0,0,0,0,0,0,0,0,0,0,0,0,0,0,0,0,0,0,0,0,0,0,0,0,0,0,0,0,0,0,0,0,0,0,0,0,0,0,0,0,0,0,0,0,0,0,0,0,0,0,0,0,0,0,0,0,0,0,0,0,0,0,0,0,0,0,0,0,0,0,0,0,0,0,0,0,0,0,0,0,0,0,0,0,0,0,0,0,0,0,0,0,0,0,0,0,0,0,0,0,0,0,0,0,0,0,0,0,0,0,0,0,0,0,0,0,0,0,0,0,0,0,0,0,0,0,0,0,0,0,0,0,0,0,0,0,0,0,0,0,0,0,0,0,0,0,0,0,0,0,0],"trees":[{"base_weights":[-3.7091736E-2,-7.3569756E0,6.2614636E0,-1.0177538E1,-4.601565E0,3.0412998E0,9.39508E0,-1.2673316E1,-9.613532E0,-6.240349E0,-2.6548676E0,1.2942436E0,4.4980006E0,8.597247E0,1.5762262E1,-1.281156E1,-1.3365994E-1,-9.874591E0,-6.3761067E0,-5.573461E0,-8.388798E0,-2.0723944E0,-6.2790775E0,6.9591194E-1,6.4975085E0,4.828448E0,-5.5052066E-1,6.394091E0,9.444094E0,1.1570923E1,1.9003431E1,-6.5497345E-1,-3.004899E-1,-9.27966E0,-1.1801274E1,-7.2790775E0,8.845342E-2,-6.3627696E0,-3.1365004E0,-8.947886E0,-1.259798E0,3.620101E-1,-2.3515847E0,-6.8018503E0,9.1340065E-2,1.5644193E-1,2.9414093E0,1.2745165E0,4.615274E-1,6.045913E0,3.7560422E0,4.6634007E-1,-2.1508644E0,6.7370844E0,1.8219023E0,4.230548E0,9.6551285E0,1.1987623E1,9.1340065E-2,1.0114201E0,4.370101E-1,-5.1144063E-1,-3.9673567E-1,-6.1487573E-1,-2.3385589E-1,-1.8627417E-1,-4.26797E-1,-2.6097348E-1,-3.669868E-1,-1.9177863E-1,1.620101E-1,1.6340066E-2,-4.6111074E-1,3.8453422E-2,-1.8365994E-1,-8.6696826E-2,-1.9539645E-1,-1.129899E-1,-3.7561238E-1,9.6841335E-2,-2.4905205E-2,7.043381E-2,2.6607284E-1,1.1614411E-1,-4.4879913E-2,1.7664921E-1,3.4076327E-1,2.242444E-1,7.961791E-2,-3.4487993E-1,-2.5587885E-2,2.2923513E-1,3.7140813E-1,-6.1546583E-2,1.5223345E-1,-8.659936E-3,2.3441212E-1,3.535339E-1,5.0139093E-1,3.5223344E-1,6.624887E-1],"categories":[],"categories_nodes":[],"categories_segments":[],"categories_sizes":[],"default_left":[0,0,0,0,0,0,0,0,0,0,0,0,0,0,0,0,0,0,0,0,0,0,0,0,0,0,0,0,0,0,0,0,0,0,0,0,0,0,0,0,0,0,0,0,0,0,0,0,0,0,0,0,0,0,0,0,0,0,0,0,0,0,0,0,0,0,0,0,0,0,0,0,0,0,0,0,0,0,0,0,0,0,0,0,0,0,0,0,0,0,0,0,0,0,0,0,0,0,0,0,0],"id":0,"left_children":[1,3,5,7,9,11,13,15,17,19,21,23,25,27,29,31,-1,33,35,37,39,41,43,45,47,49,51,53,55,57,59,-1,-1,61,63,65,-1,67,69,71,73,-1,75,77,-1,79,81,83,-1,85,87,-1,89,91,93,95,97,99,-1,-1,-1,-1,-1,-1,-1,-1,-1,-1,-1,-1,-1,-1,-1,-1,-1,-1,-1,-1,-1,-1,-1,-1,-1,-1,-1,-1,-1,-1,-1,-1,-1,-1,-1,-1,-1,-1,-1,-1,-1,-1,-1],"loss_changes":[6.270234E4,4.841633E3,7.3477695E3,3.145332E2,1.00430225E3,9.154458E2,1.7440664E3,4.0404297E1,1.5424414E2,2.0111523E2,2.9941614E2,5.122825E2,3.3130737E2,5.571719E2,3.2350586E2,2.5064453E1,0E0,1.6100195E2,1.7468402E2,2.3971777E2,1.4417139E2,3.5242438E2,9.717627E1,1.8124661E2,2.3090442E2,2.1883057E2,2.2555309E2,1.3670752E2,2.1991016E2,5.930835E1,8.721484E1,0E0,0E0,1.5500195E2,1.2631787E2,5.7526978E1,0E0,7.450391E1,1.684501E2,9.460889E1,2.2410812E1,0E0,1.143443E2,4.4330444E1,0E0,1.4313669E2,9.8295166E1,1.8025208E1,0E0,1.402544E2,1.5213464E2,0E0,8.983493E1,9.6841064E1,3.3611008E1,2.2983276E1,1.4774414E2,2.5196045E1,0E0,0E0,0E0,0E0,0E0,0E0,0E0,0E0,0E0,0E0,0E0,0E0,0E0,0E0,0E0,0E0,0E0,0E0,0E0,0E0,0E0,0E0,0E0,0E0,0E0,0E0,0E0,0E0,0E0,0E0,0E0,0E0,0E0,0E0,0E0,0E0,0E0,0E0,0E0,0E0,0E0,0E0,0E0],"parents":[2147483647,0,0,1,1,2,2,3,3,4,4,5,5,6,6,7,7,8,8,9,9,10,10,11,11,12,12,13,13,14,14,15,15,17,17,18,18,19,19,20,20,21,21,22,22,23,23,24,24,25,25,26,26,27,27,28,28,29,29,30,30,33,33,34,34,35,35,37,37,38,38,39,39,40,40,42,42,43,43,45,45,46,46,47,47,49,49,50,50,52,52,53,53,54,54,55,55,56,56,57,57],"right_children":[2,4,6,8,10,12,14,16,18,20,22,24,26,28,30,32,-1,34,36,38,40,42,44,46,48,50,52,54,56,58,60,-1,-1,62,64,66,-1,68,70,72,74,-1,76,78,-1,80,82,84,-1,86,88,-1,90,92,94,96,98,100,-1,-1,-1,-1,-1,-1,-1,-1,-1,-1,-1,-1,-1,-1,-1,-1,-1,-1,-1,-1,-1,-1,-1,-1,-1,-1,-1,-1,-1,-1,-1,-1,-1,-1,-1,-1,-1,-1,-1,-1,-1,-1,-1],"split_conditions":[1.9428572E1,1.2714286E1,2.7E1,8.857142E0,1.5857142E1,2.3571428E1,1E0,6.19154E0,1.9E1,1.9E1,2.6E1,1E0,8.141603E0,2.8428572E1,5.429198E0,2E1,-1.3365994E-1,6.2144227E0,6.466028E0,6.2564254E0,1.2E1,7E0,1.9142857E1,2.4E1,4.86484E0,2.5E1,1.7E1,2.9428572E1,2.75E1,3.8E1,4.2857143E-1,-6.5497345E-1,-3.004899E-1,1.1E1,1.6E1,9E0,8.845342E-2,1.5E1,1E0,2E0,2E1,3.620101E-1,2.1E1,5.023753E0,9.1340065E-2,1.9E1,5.023753E0,5.151016E0,4.615274E-1,4.286447E0,2.8E1,4.6634007E-1,6.9031763E0,2.6357143E1,2.9857143E1,2.1E1,4.0660753E0,3.9581141E0,9.1340065E-2,1.0114201E0,4.370101E-1,-5.1144063E-1,-3.9673567E-1,-6.1487573E-1,-2.3385589E-1,-1.8627417E-1,-4.26797E-1,-2.6097348E-1,-3.669868E-1,-1.9177863E-1,1.620101E-1,1.6340066E-2,-4.6111074E-1,3.8453422E-2,-1.8365994E-1,-8.6696826E-2,-1.9539645E-1,-1.129899E-1,-3.7561238E-1,9.6841335E-2,-2.4905205E-2,7.043381E-2,2.6607284E-1,1.1614411E-1,-4.4879913E-2,1.7664921E-1,3.4076327E-1,2.242444E-1,7.961791E-2,-3.4487993E-1,-2.5587885E-2,2.2923513E-1,3.7140813E-1,-6.1546583E-2,1.5223345E-1,-8.659936E-3,2.3441212E-1,3.535339E-1,5.0139093E-1,3.5223344E-1,6.624887E-1],"split_indices":[7,7,7,7,7,7,15,10,4,0,0,15,8,7,8,4,0,8,8,8,12,3,7,9,8,3,2,9,9,3,16,0,0,7,4,0,0,2,15,3,0,0,3,8,0,2,8,10,0,10,2,0,10,9,9,4,10,8,0,0,0,0,0,0,0,0,0,0,0,0,0,0,0,0,0,0,0,0,0,0,0,0,0,0,0,0,0,0,0,0,0,0,0,0,0,0,0,0,0,0,0],"split_type":[0,0,0,0,0,0,0,0,0,0,0,0,0,0,0,0,0,0,0,0,0,0,0,0,0,0,0,0,0,0,0,0,0,0,0,0,0,0,0,0,0,0,0,0,0,0,0,0,0,0,0,0,0,0,0,0,0,0,0,0,0,0,0,0,0,0,0,0,0,0,0,0,0,0,0,0,0,0,0,0,0,0,0,0,0,0,0,0,0,0,0,0,0,0,0,0,0,0,0,0,0],"sum_hessian":[1.358E3,6.28E2,7.3E2,3.09E2,3.19E2,3.61E2,3.69E2,5.3E1,2.56E2,1.72E2,1.47E2,1.65E2,1.96E2,3.3E2,3.9E1,5.2E1,1E0,2.35E2,2.1E1,1.34E2,3.8E1,1.28E2,1.9E1,1.49E2,1.6E1,1.84E2,1.2E1,9.4E1,2.36E2,1.9E1,2E1,4.9E1,3E0,1.84E2,5.1E1,1.9E1,2E0,1E2,3.4E1,3.5E1,3E0,3E0,1.25E2,1.8E1,1E0,1.21E2,2.8E1,6E0,1E1,8.4E1,1E2,1E0,1.1E1,8.7E1,7E0,1E1,2.26E2,1.8E1,1E0,1.7E1,3E0,1.04E2,8E1,4.7E1,4E0,6E0,1.3E1,4.9E1,5.1E1,3.1E1,3E0,1E0,3.4E1,2E0,1E0,9.1E1,3.4E1,3E0,1.5E1,3.2E1,8.9E1,1.8E1,1E1,4E0,2E0,2.1E1,6.3E1,7.4E1,2.6E1,2E0,9E0,2.3E1,6.4E1,2E0,5E0,1E0,9E0,3.1E1,1.95E2,5E0,1.3E1],"tree_param":{"num_deleted":"0","num_feature":"20","num_nodes":"101","size_leaf_vector":"1"}},{"base_weights":[1.9138582E-2,-6.53948E0,6.4847E0,-8.628343E0,-2.7867928E0,3.397018E0,9.192802E0,-9.629208E0,-6.3719563E0,-3.3405552E0,1.2330323E0,2.938392E0,8.664039E0,8.281295E0,1.5377763E1,-1.2540946E1,-9.067979E0,-7.183043E0,-4.947206E0,-4.1157384E0,-1.0515978E0,-1.3874133E0,5.4976892E0,8.687458E-1,3.7566133E0,1.0383378E1,1.2023458E0,7.254144E0,9.703613E0,1.1025066E1,9.234681E-1,-1.6116524E-1,-1.2883434E1,-5.705584E0,-9.293565E0,9.013343E-1,-7.482501E0,-2.77495E0,-6.1433873E0,-2.7649655E0,-5.308707E0,4.7704488E-1,-4.3901596E0,-2.5475535E-1,-1.4204562E-1,6.631187E0,-1.7426963E-1,1.3802657E0,-2.485902E0,6.3146024E0,3.4242237E0,1.6880344E-1,1.1363704E1,2.980247E0,-1.9217901E-1,2.7785048E0,7.455769E0,8.732702E0,1.0917351E1,3.6124578E-1,1.231681E1,-6.615241E-1,-3.0092838E-1,-3.315075E-1,-8.953848E-2,-5.106959E-1,-4.1160288E-1,9.613452E-2,-4.0007276E-3,4.613452E-2,-3.7974426E-1,1.372898E-1,-1.5941386E-1,-3.2836536E-1,-6.610811E-2,-2.8902695E-2,-1.88336E-1,-2.292759E-1,-4.0930325E-1,-2.3984283E-2,1.9128743E-1,-1.4081642E-1,-3.9594278E-1,6.797624E-2,-1.8587027E-1,2.135487E-1,4.8469076E-1,-4.3988314E-2,1.0678947E-1,1.2087853E-1,-2.194506E-1,5.26192E-2,3.372575E-1,1.3153636E-1,2.184083E-1,5.9516054E-1,5.4801892E-2,1.6780353E-1,3.6923837E-2,2.0195751E-1,-6.112528E-3,4.0066782E-1,3.0266386E-1,4.62416E-1,2.82067E-1,5.520177E-1,1.038053E-1,2.5346178E-1,6.52094E-1],"categories":[],"categories_nodes":[],"categories_segments":[],"categories_sizes":[],"default_left":[0,0,0,0,0,0,0,0,0,0,0,0,0,0,0,0,0,0,0,0,0,0,0,0,0,0,0,0,0,0,0,0,0,0,0,0,0,0,0,0,0,0,0,0,0,0,0,0,0,0,0,0,0,0,0,0,0,0,0,0,0,0,0,0,0,0,0,0,0,0,0,0,0,0,0,0,0,0,0,0,0,0,0,0,0,0,0,0,0,0,0,0,0,0,0,0,0,0,0,0,0,0,0,0,0,0,0,0,0],"id":1,"left_children":[1,3,5,7,9,11,13,15,17,19,21,23,25,27,29,31,33,35,37,39,41,43,45,47,49,51,53,55,57,59,-1,-1,61,63,65,67,69,71,73,75,77,79,81,-1,83,85,-1,87,89,91,93,-1,95,97,-1,99,101,103,105,-1,107,-1,-1,-1,-1,-1,-1,-1,-1,-1,-1,-1,-1,-1,-1,-1,-1,-1,-1,-1,-1,-1,-1,-1,-1,-1,-1,-1,-1,-1,-1,-1,-1,-1,-1,-1,-1,-1,-1,-1,-1,-1,-1,-1,-1,-1,-1,-1,-1],"loss_changes":[5.9367223E4,5.423957E3,5.8638145E3,9.458594E2,5.606261E2,7.741028E2,1.9867656E3,3.879629E2,1.2624756E2,3.860315E2,3.5406192E2,5.1492554E2,3.2107422E2,4.1025586E2,4.2884375E2,1.0845801E2,1.4494727E2,2.1736523E2,1.232666E2,2.4959595E2,2.9299197E2,9.16251E1,1.452999E2,1.544365E2,1.6458203E2,1.05893555E2,6.528177E1,1.5525293E2,6.375E1,1.900586E1,0E0,0E0,2.7581543E1,5.6897522E1,1.5332031E2,4.1630697E0,8.635449E1,5.667372E1,6.080664E1,1.7089178E2,1.4141772E2,1.2998743E2,7.766223E1,0E0,9.095237E1,3.811093E1,0E0,1.3335707E2,1.225929E2,4.7276733E1,1.3531543E2,0E0,8.666455E1,1.7341652E0,0E0,3.7062027E1,9.694629E1,7.534375E1,3.7979004E1,0E0,1.27126465E1,0E0,0E0,0E0,0E0,0E0,0E0,0E0,0E0,0E0,0E0,0E0,0E0,0E0,0E0,0E0,0E0,0E0,0E0,0E0,0E0,0E0,0E0,0E0,0E0,0E0,0E0,0E0,0E0,0E0,0E0,0E0,0E0,0E0,0E0,0E0,0E0,0E0,0E0,0E0,0E0,0E0,0E0,0E0,0E0,0E0,0E0,0E0,0E0],"parents":[2147483647,0,0,1,1,2,2,3,3,4,4,5,5,6,6,7,7,8,8,9,9,10,10,11,11,12,12,13,13,14,14,15,15,16,16,17,17,18,18,19,19,20,20,21,21,22,22,23,23,24,24,25,25,26,26,27,27,28,28,29,29,32,32,33,33,34,34,35,35,36,36,37,37,38,38,39,39,40,40,41,41,42,42,44,44,45,45,47,47,48,48,49,49,50,50,52,52,53,53,55,55,56,56,57,57,58,58,60,60],"right_children":[2,4,6,8,10,12,14,16,18,20,22,24,26,28,30,32,34,36,38,40,42,44,46,48,50,52,54,56,58,60,-1,-1,62,64,66,68,70,72,74,76,78,80,82,-1,84,86,-1,88,90,92,94,-1,96,98,-1,100,102,104,106,-1,108,-1,-1,-1,-1,-1,-1,-1,-1,-1,-1,-1,-1,-1,-1,-1,-1,-1,-1,-1,-1,-1,-1,-1,-1,-1,-1,-1,-1,-1,-1,-1,-1,-1,-1,-1,-1,-1,-1,-1,-1,-1,-1,-1,-1,-1,-1,-1,-1],"split_conditions":[2.0857143E1,1.4857142E1,2.7E1,1.2714286E1,1E0,1E0,1E0,9E0,4E0,1.8857143E1,6.011893E0,2.3428572E1,2.8E1,3E1,5.6987886E0,1E0,4E0,8E0,5E0,1.7E1,2.2E1,-7.1428573E-1,2.6E1,5.963718E0,1.9E1,4.0590873E0,2.3E1,2.1E1,3.2E1,3.994043E0,9.234681E-1,-1.6116524E-1,2E1,1.1857142E1,-3.5714287E-1,1E1,3E0,3E0,2.3E1,1.5E1,2.857143E-1,1E0,1E0,-2.5475535E-1,2E0,1.6E1,-1.7426963E-1,-2.857143E-1,1.8E1,4.4202332E0,2.5142857E1,1.6880344E-1,3E1,2.8E1,-1.9217901E-1,6.824326E0,3.1E1,6.7541876E0,5.2E1,3.6124578E-1,2.2E1,-6.615241E-1,-3.0092838E-1,-3.315075E-1,-8.953848E-2,-5.106959E-1,-4.1160288E-1,9.613452E-2,-4.0007276E-3,4.613452E-2,-3.7974426E-1,1.372898E-1,-1.5941386E-1,-3.2836536E-1,-6.610811E-2,-2.8902695E-2,-1.88336E-1,-2.292759E-1,-4.0930325E-1,-2.3984283E-2,1.9128743E-1,-1.4081642E-1,-3.9594278E-1,6.797624E-2,-1.8587027E-1,2.135487E-1,4.8469076E-1,-4.3988314E-2,1.0678947E-1,1.2087853E-1,-2.194506E-1,5.26192E-2,3.372575E-1,1.3153636E-1,2.184083E-1,5.9516054E-1,5.4801892E-2,1.6780353E-1,3.6923837E-2,2.0195751E-1,-6.112528E-3,4.0066782E-1,3.0266386E-1,4.62416E-1,2.82067E-1,5.520177E-1,1.038053E-1,2.5346178E-1,6.52094E-1],"split_indices":[7,7,7,7,15,15,15,9,13,7,8,9,2,7,8,4,0,2,13,0,0,11,0,10,6,8,4,4,7,8,0,0,6,9,11,0,0,6,2,2,16,17,17,0,11,4,0,11,2,10,7,0,0,0,0,8,2,8,2,0,0,0,0,0,0,0,0,0,0,0,0,0,0,0,0,0,0,0,0,0,0,0,0,0,0,0,0,0,0,0,0,0,0,0,0,0,0,0,0,0,0,0,0,0,0,0,0,0,0],"split_type":[0,0,0,0,0,0,0,0,0,0,0,0,0,0,0,0,0,0,0,0,0,0,0,0,0,0,0,0,0,0,0,0,0,0,0,0,0,0,0,0,0,0,0,0,0,0,0,0,0,0,0,0,0,0,0,0,0,0,0,0,0,0,0,0,0,0,0,0,0,0,0,0,0,0,0,0,0,0,0,0,0,0,0,0,0,0,0,0,0,0,0,0,0,0,0,0,0,0,0,0,0,0,0,0,0,0,0,0,0],"sum_hessian":[1.398E3,6.94E2,7.04E2,4.45E2,2.49E2,3.3E2,3.74E2,3.06E2,1.39E2,2.19E2,3E1,3.05E2,2.5E1,3.28E2,4.6E1,4.6E1,2.6E2,8.6E1,5.3E1,1.63E2,5.6E1,1.9E1,1.1E1,8.7E1,2.18E2,2E1,5E0,1.94E2,1.34E2,2.1E1,2.5E1,2E0,4.4E1,1.8E1,2.42E2,3E0,8.3E1,2E1,3.3E1,7.8E1,8.5E1,3.9E1,1.7E1,4E0,1.5E1,1E1,1E0,7.6E1,1.1E1,2.3E1,1.95E2,3E0,1.7E1,4E0,1E0,9E0,1.85E2,7.9E1,5.5E1,7E0,1.4E1,4.1E1,3E0,1.4E1,4E0,1.25E2,1.17E2,1E0,2E0,1E0,8.2E1,1E0,1.9E1,3E1,3E0,2.5E1,5.3E1,7E1,1.5E1,3.1E1,8E0,1.3E1,4E0,1.1E1,4E0,7E0,3E0,1.9E1,5.7E1,3E0,8E0,2E0,2.1E1,1.08E2,8.7E1,1.6E1,1E0,3E0,1E0,6E0,3E0,1.29E2,5.6E1,6.6E1,1.3E1,5.4E1,1E0,2E0,1.2E1],"tree_param":{"num_deleted":"0","num_feature":"20","num_nodes":"109","size_leaf_vector":"1"}},{"base_weights":[-7.011706E-2,5.997294E0,-6.2161107E0,5.3398514E0,1.2953888E1,-2.029161E0,-7.1593976E0,6.0710454E0,1.8501595E0,8.880852E0,1.5807362E1,-2.3321607E0,5.951661E0,-7.752631E0,-2.9814832E0,2.2122035E0,6.8308787E0,-9.089319E-2,2.4906344E0,-1.5675894E0,9.77943E0,1.6264593E1,1.7967893E-2,-1.7978412E0,-4.8927026E0,6.218052E-2,3.4088856E-1,-8.031038E0,-4.5585914E0,-2.823538E-1,-5.133728E0,4.1528344E0,1.6261345E0,4.6649804E0,7.5388355E0,2.4833226E0,-1.1898003E0,3.6858505E-1,2.1585855E0,-1.8737455E-1,6.980534E-2,3.7948387E0,1.07386465E1,5.3431846E-2,1.6706072E1,-2.2137527E0,2.3746953E0,-9.793905E-2,-5.467815E0,-8.4938755E0,-6.4881706E0,-6.5955358E0,-2.9096477E0,-1.8681076E0,4.1538906E0,-5.665832E0,-2.7583274E-1,2.8749776E-1,1.8266514E-2,9.3552396E-2,-1.441348E-1,2.6723048E-1,1.3994442E-1,2.6631287E-1,3.941909E-1,1.513984E-1,1.9235421E-2,6.104088E-4,-1.7977807E-1,4.7973022E-2,1.89399E-1,2.527418E-1,6.349475E-2,3.7512997E-1,6.7740196E-1,6.0554814E-1,9.12213E-1,-1.6802366E-1,-1.1918629E-3,2.9744062E-1,-3.9739248E-1,-2.4157096E-2,-2.8745803E-1,-3.447296E-1,-4.6301046E-1,-3.5794002E-1,-1.572964E-1,-2.2491531E-1,-4.624284E-1,-2.0222457E-1,6.790524E-2,-1.2525642E-1,5.9050065E-2,1.6099485E-2,2.6013604E-1,-3.289965E-1,-1.4950813E-1,-1.5786253E-1,1.3487647E-1],"categories":[],"categories_nodes":[],"categories_segments":[],"categories_sizes":[],"default_left":[0,0,0,0,0,0,0,0,0,0,0,0,0,0,0,0,0,0,0,0,0,0,0,0,0,0,0,0,0,0,0,0,0,0,0,0,0,0,0,0,0,0,0,0,0,0,0,0,0,0,0,0,0,0,0,0,0,0,0,0,0,0,0,0,0,0,0,0,0,0,0,0,0,0,0,0,0,0,0,0,0,0,0,0,0,0,0,0,0,0,0,0,0,0,0,0,0,0,0],"id":2,"left_children":[1,3,5,7,9,11,13,15,17,19,21,23,25,27,29,31,33,35,37,39,41,43,-1,45,47,-1,-1,49,51,53,55,57,59,61,63,65,67,-1,69,-1,-1,71,73,-1,75,77,79,-1,81,83,85,87,89,91,93,95,97,-1,-1,-1,-1,-1,-1,-1,-1,-1,-1,-1,-1,-1,-1,-1,-1,-1,-1,-1,-1,-1,-1,-1,-1,-1,-1,-1,-1,-1,-1,-1,-1,-1,-1,-1,-1,-1,-1,-1,-1,-1,-1],"loss_changes":[5.2094496E4,3.146041E3,2.7264219E3,1.6320234E3,5.569551E2,3.2582623E2,1.3797031E3,1.5447559E3,1.4070743E2,2.6882642E2,2.3430762E2,1.622221E2,1.1909805E1,4.0356445E2,4.168119E2,9.447049E1,6.4564453E2,8.499055E1,1.2185162E2,2.4613594E1,1.02761475E2,2.0353418E2,0E0,1.8747467E2,2.4723755E1,0E0,0E0,2.690918E2,1.2187921E2,2.3990804E2,1.01833496E2,1.1888141E2,8.269272E1,1.2708496E2,2.121875E2,9.12212E0,6.077053E1,0E0,1.5462729E2,0E0,0E0,9.487999E0,8.927222E1,0E0,5.2246094E0,2.409971E2,4.1622015E2,0E0,2.1063416E1,3.6020508E2,2.2179199E2,5.8549377E1,1.2657358E2,5.1517204E1,3.4495895E1,6.837451E1,5.1354275E1,0E0,0E0,0E0,0E0,0E0,0E0,0E0,0E0,0E0,0E0,0E0,0E0,0E0,0E0,0E0,0E0,0E0,0E0,0E0,0E0,0E0,0E0,0E0,0E0,0E0,0E0,0E0,0E0,0E0,0E0,0E0,0E0,0E0,0E0,0E0,0E0,0E0,0E0,0E0,0E0,0E0,0E0],"parents":[2147483647,0,0,1,1,2,2,3,3,4,4,5,5,6,6,7,7,8,8,9,9,10,10,11,11,12,12,13,13,14,14,15,15,16,16,17,17,18,18,19,19,20,20,21,21,23,23,24,24,27,27,28,28,29,29,30,30,31,31,32,32,33,33,34,34,35,35,36,36,38,38,41,41,42,42,44,44,45,45,46,46,48,48,49,49,50,50,51,51,52,52,53,53,54,54,55,55,56,56],"right_children":[2,4,6,8,10,12,14,16,18,20,22,24,26,28,30,32,34,36,38,40,42,44,-1,46,48,-1,-1,50,52,54,56,58,60,62,64,66,68,-1,70,-1,-1,72,74,-1,76,78,80,-1,82,84,86,88,90,92,94,96,98,-1,-1,-1,-1,-1,-1,-1,-1,-1,-1,-1,-1,-1,-1,-1,-1,-1,-1,-1,-1,-1,-1,-1,-1,-1,-1,-1,-1,-1,-1,-1,-1,-1,-1,-1,-1,-1,-1,-1,-1,-1,-1],"split_conditions":[7E0,1E0,8E0,6E0,5.4937525E0,2.642857E0,1.2E1,2E0,2.1E1,-1.4285715E0,7.5621963E0,2.4E1,1.5E1,1.9285715E0,1.7E1,1.9E1,-8.5714287E-1,2E1,-2.4285715E0,2.3E1,2.1E1,1E1,1.7967893E-2,6.6893387E0,1.2E1,6.218052E-2,3.4088856E-1,1.1E1,1.1E1,6.0205693E0,1.9285715E0,6E0,3.5E1,5E0,2.3E1,2.6E1,2.4E1,3.6858505E-1,6.4285713E-1,-1.8737455E-1,6.980534E-2,2.4E1,4E0,5.3431846E-2,6.027866E0,4.2857143E-1,1E0,-9.793905E-2,4E0,9E0,1.9E1,1.7E1,1.8E1,5E0,1.1E1,1E0,5.8797474E0,2.8749776E-1,1.8266514E-2,9.3552396E-2,-1.441348E-1,2.6723048E-1,1.3994442E-1,2.6631287E-1,3.941909E-1,1.513984E-1,1.9235421E-2,6.104088E-4,-1.7977807E-1,4.7973022E-2,1.89399E-1,2.527418E-1,6.349475E-2,3.7512997E-1,6.7740196E-1,6.0554814E-1,9.12213E-1,-1.6802366E-1,-1.1918629E-3,2.9744062E-1,-3.9739248E-1,-2.4157096E-2,-2.8745803E-1,-3.447296E-1,-4.6301046E-1,-3.5794002E-1,-1.572964E-1,-2.2491531E-1,-4.624284E-1,-2.0222457E-1,6.790524E-2,-1.2525642E-1,5.9050065E-2,1.6099485E-2,2.6013604E-1,-3.289965E-1,-1.4950813E-1,-1.5786253E-1,1.3487647E-1],"split_indices":[12,15,12,12,10,11,12,12,0,11,10,2,0,11,0,6,11,5,11,0,3,2,0,10,1,0,0,12,5,10,11,13,3,12,5,1,1,0,11,0,0,2,13,0,10,11,18,0,0,12,2,0,6,13,1,19,10,0,0,0,0,0,0,0,0,0,0,0,0,0,0,0,0,0,0,0,0,0,0,0,0,0,0,0,0,0,0,0,0,0,0,0,0,0,0,0,0,0,0],"split_type":[0,0,0,0,0,0,0,0,0,0,0,0,0,0,0,0,0,0,0,0,0,0,0,0,0,0,0,0,0,0,0,0,0,0,0,0,0,0,0,0,0,0,0,0,0,0,0,0,0,0,0,0,0,0,0,0,0,0,0,0,0,0,0,0,0,0,0,0,0,0,0,0,0,0,0,0,0,0,0,0,0,0,0,0,0,0,0,0,0,0,0,0,0,0,0,0,0,0,0],"sum_hessian":[1.395E3,7.02E2,6.93E2,6.43E2,5.9E1,1.28E2,5.65E2,5.31E2,1.12E2,2.6E1,3.3E1,1.24E2,4E0,4.94E2,7.1E1,8.8E1,4.43E2,2.8E1,8.4E1,2E0,2.4E1,3.2E1,1E0,1.04E2,2E1,1E0,3E0,4.53E2,4.1E1,3.2E1,3.9E1,1.9E1,6.9E1,1.11E2,3.32E2,8E0,2E1,4E0,8E1,1E0,1E0,4E0,2E1,1E0,3.1E1,9.5E1,9E0,4E0,1.6E1,3.45E2,1.08E2,1.7E1,2.4E1,2.4E1,8E0,3.5E1,4E0,1.3E1,6E0,6.6E1,3E0,8E1,3.1E1,4.7E1,2.85E2,6E0,2E0,1.4E1,6E0,4.7E1,3.3E1,2E0,2E0,1.1E1,9E0,1E1,2.1E1,6.2E1,3.3E1,7E0,2E0,1E0,1.5E1,1.15E2,2.3E2,8.9E1,1.9E1,1.1E1,6E0,1.9E1,5E0,2E1,4E0,2E0,6E0,2.5E1,1E1,2E0,2E0],"tree_param":{"num_deleted":"0","num_feature":"20","num_nodes":"99","size_leaf_vector":"1"}},{"base_weights":[2.0426272E-3,-5.869859E0,5.7749767E0,-7.639177E0,-2.5319576E0,2.9719846E0,7.832371E0,-9.368946E0,-6.1694517E0,-2.8579826E0,4.6336656E0,1.7139285E0,4.0137897E0,6.4882565E0,9.266822E0,-1.1329737E1,-8.709898E0,-7.5747123E0,-4.6086807E0,-3.9166155E0,-1.6698594E0,-1.09699205E-1,5.5358286E0,1.1939386E0,3.7326763E0,5.417089E0,3.2230012E0,3.5052032E0,7.3945403E0,9.897292E0,6.931303E0,-1.4035937E-1,-1.1632671E1,-1.0073336E1,-7.744526E0,-5.618275E0,-8.510351E0,-1.2246541E-2,-4.848388E0,-2.7073436E0,-4.886942E0,-4.5625362E0,-1.1402202E0,6.1775723E0,9.896186E-2,4.916128E0,8.2096934E-1,4.660945E0,-3.00217E0,5.78897E0,1.2292897E0,6.002488E-1,3.8869581E0,7.4716973E0,2.5012465E0,4.4122124E0,7.8742805E0,1.0977624E1,7.1691875E0,1.1515307E0,7.316726E0,-5.878349E-1,-1.4818712E-1,-2.3345701E-1,-5.2293557E-1,-3.3806613E-1,-5.172514E-1,-3.2808715E-1,-2.1725953E-2,-9.575963E-3,-4.404362E-1,6.0061485E-2,-1.8232761E-1,-1.8342273E-1,-2.8820363E-1,-1.8322942E-1,1.0790827E-1,-1.7321606E-1,-3.123847E-1,-1.3647197E-1,-3.3956632E-1,-7.207553E-2,1.8096934E-1,7.423573E-2,3.317939E-1,3.950353E-1,1.2541756E-1,-6.10097E-2,7.282575E-2,2.7315104E-1,6.0526676E-2,-5.2217674E-2,-2.218905E-1,-2.2806216E-2,2.9589197E-1,-3.0953184E-2,1.1541162E-1,2.8184202E-1,-7.544753E-2,2.0704763E-1,-1.1775797E-1,4.700162E-1,-8.093548E-3,3.758157E-2,2.0685843E-1,3.3851787E-1,1.4521207E-1,4.3807268E-1,3.3579138E-1,4.6404797E-1,6.7937577E-1,2.475338E-1,4.417355E-1,1.0216948E-1,-3.8101148E-2,3.986454E-1,1.7656706E-1],"categories":[],"categories_nodes":[],"categories_segments":[],"categories_sizes":[],"default_left":[0,0,0,0,0,0,0,0,0,0,0,0,0,0,0,0,0,0,0,0,0,0,0,0,0,0,0,0,0,0,0,0,0,0,0,0,0,0,0,0,0,0,0,0,0,0,0,0,0,0,0,0,0,0,0,0,0,0,0,0,0,0,0,0,0,0,0,0,0,0,0,0,0,0,0,0,0,0,0,0,0,0,0,0,0,0,0,0,0,0,0,0,0,0,0,0,0,0,0,0,0,0,0,0,0,0,0,0,0,0,0,0,0,0,0,0,0],"id":3,"left_children":[1,3,5,7,9,11,13,15,17,19,21,23,25,27,29,31,33,35,37,39,41,-1,43,45,47,49,51,53,55,57,59,-1,61,63,65,67,69,71,73,75,77,79,81,83,-1,85,87,89,91,93,95,97,99,101,103,105,107,109,111,113,115,-1,-1,-1,-1,-1,-1,-1,-1,-1,-1,-1,-1,-1,-1,-1,-1,-1,-1,-1,-1,-1,-1,-1,-1,-1,-1,-1,-1,-1,-1,-1,-1,-1,-1,-1,-1,-1,-1,-1,-1,-1,-1,-1,-1,-1,-1,-1,-1,-1,-1,-1,-1,-1,-1,-1,-1],"loss_changes":[4.7864117E4,4.1147227E3,4.0827266E3,1.1040254E3,5.832693E2,3.902473E2,7.303828E2,1.7010742E2,5.134131E2,2.8778198E2,7.990175E1,1.4145569E2,1.6564331E2,5.5533203E2,2.200039E2,9.385156E1,1.3258301E2,1.901543E2,1.332583E2,1.3109619E2,1.663901E2,0E0,1.059729E1,1.5144937E2,1.8904187E2,8.321069E1,1.8573743E2,1.8838525E2,1.9989746E2,3.6928223E2,9.1819336E1,0E0,1.5688965E1,8.2373535E1,1.8062256E2,2.1723059E2,2.1177441E2,3.5251354E1,1.0310596E2,2.7338535E2,1.0805676E2,5.0918488E1,1.4288367E2,7.3537292E0,0E0,5.2044235E1,1.3539426E2,6.2574158E1,6.6082344E0,4.535388E1,1.3394546E1,2.5283878E2,1.461023E2,1.4874463E2,1.199664E2,6.923758E1,8.504492E1,3.4770312E2,1.262312E2,8.38359E0,7.61687E1,0E0,0E0,0E0,0E0,0E0,0E0,0E0,0E0,0E0,0E0,0E0,0E0,0E0,0E0,0E0,0E0,0E0,0E0,0E0,0E0,0E0,0E0,0E0,0E0,0E0,0E0,0E0,0E0,0E0,0E0,0E0,0E0,0E0,0E0,0E0,0E0,0E0,0E0,0E0,0E0,0E0,0E0,0E0,0E0,0E0,0E0,0E0,0E0,0E0,0E0,0E0,0E0,0E0,0E0,0E0,0E0],"parents":[2147483647,0,0,1,1,2,2,3,3,4,4,5,5,6,6,7,7,8,8,9,9,10,10,11,11,12,12,13,13,14,14,15,15,16,16,17,17,18,18,19,19,20,20,22,22,23,23,24,24,25,25,26,26,27,27,28,28,29,29,30,30,32,32,33,33,34,34,35,35,36,36,37,37,38,38,39,39,40,40,41,41,42,42,43,43,45,45,46,46,47,47,48,48,49,49,50,50,51,51,52,52,53,53,54,54,55,55,56,56,57,57,58,58,59,59,60,60],"right_children":[2,4,6,8,10,12,14,16,18,20,22,24,26,28,30,32,34,36,38,40,42,-1,44,46,48,50,52,54,56,58,60,-1,62,64,66,68,70,72,74,76,78,80,82,84,-1,86,88,90,92,94,96,98,100,102,104,106,108,110,112,114,116,-1,-1,-1,-1,-1,-1,-1,-1,-1,-1,-1,-1,-1,-1,-1,-1,-1,-1,-1,-1,-1,-1,-1,-1,-1,-1,-1,-1,-1,-1,-1,-1,-1,-1,-1,-1,-1,-1,-1,-1,-1,-1,-1,-1,-1,-1,-1,-1,-1,-1,-1,-1,-1,-1,-1,-1],"split_conditions":[2.0928572E1,1.4785714E1,2.6142857E1,1.15E1,2.642857E0,2.3928572E1,2.9142857E1,9.142858E0,1.4285715E-1,1.7642857E1,1E0,1.2142857E0,2.3E1,-8.5714287E-1,3.6E1,1E0,-2.1428572E-1,1E1,4E0,1.6E1,-1.8571428E0,-1.09699205E-1,2.3E1,1.5E1,6.3094788E0,7.0865917E0,-1.0714285E0,2.2E1,2.2E1,1E0,2.3E1,-1.4035937E-1,2E1,3E0,6.148945E0,6.466028E0,1E0,1.9E1,1.4E1,6.824326E0,9E0,1.8E1,7.6175766E0,1.2E1,9.896186E-2,1.8E1,2.1928572E1,2.4E1,3.1E1,1.2E1,2.1E1,2.1E1,7.477806E0,3.1E1,2.8071428E1,1.4285715E-1,2.9E1,5.928141E0,-5E-1,3.8E1,3.6E1,-5.878349E-1,-1.4818712E-1,-2.3345701E-1,-5.2293557E-1,-3.3806613E-1,-5.172514E-1,-3.2808715E-1,-2.1725953E-2,-9.575963E-3,-4.404362E-1,6.0061485E-2,-1.8232761E-1,-1.8342273E-1,-2.8820363E-1,-1.8322942E-1,1.0790827E-1,-1.7321606E-1,-3.123847E-1,-1.3647197E-1,-3.3956632E-1,-7.207553E-2,1.8096934E-1,7.423573E-2,3.317939E-1,3.950353E-1,1.2541756E-1,-6.10097E-2,7.282575E-2,2.7315104E-1,6.0526676E-2,-5.2217674E-2,-2.218905E-1,-2.2806216E-2,2.9589197E-1,-3.0953184E-2,1.1541162E-1,2.8184202E-1,-7.544753E-2,2.0704763E-1,-1.1775797E-1,4.700162E-1,-8.093548E-3,3.758157E-2,2.0685843E-1,3.3851787E-1,1.4521207E-1,4.3807268E-1,3.3579138E-1,4.6404797E-1,6.7937577E-1,2.475338E-1,4.417355E-1,1.0216948E-1,-3.8101148E-2,3.986454E-1,1.7656706E-1],"split_indices":[9,9,9,9,11,9,9,9,11,9,4,11,1,11,0,4,11,0,4,0,11,0,2,1,8,10,11,2,5,19,6,0,6,3,8,8,1,6,0,8,12,0,10,1,0,5,9,4,0,4,5,2,10,1,9,11,2,8,11,0,1,0,0,0,0,0,0,0,0,0,0,0,0,0,0,0,0,0,0,0,0,0,0,0,0,0,0,0,0,0,0,0,0,0,0,0,0,0,0,0,0,0,0,0,0,0,0,0,0,0,0,0,0,0,0,0,0],"split_type":[0,0,0,0,0,0,0,0,0,0,0,0,0,0,0,0,0,0,0,0,0,0,0,0,0,0,0,0,0,0,0,0,0,0,0,0,0,0,0,0,0,0,0,0,0,0,0,0,0,0,0,0,0,0,0,0,0,0,0,0,0,0,0,0,0,0,0,0,0,0,0,0,0,0,0,0,0,0,0,0,0,0,0,0,0,0,0,0,0,0,0,0,0,0,0,0,0,0,0,0,0,0,0,0,0,0,0,0,0,0,0,0,0,0,0,0,0],"sum_hessian":[1.41E3,6.99E2,7.11E2,4.56E2,2.43E2,3.02E2,4.09E2,2.07E2,2.49E2,2.33E2,1E1,1.38E2,1.64E2,2.14E2,1.95E2,4.8E1,1.59E2,1.29E2,1.2E2,1.22E2,1.11E2,1E0,9E0,1.11E2,2.7E1,5.7E1,1.07E2,5.1E1,1.63E2,1.51E2,4.4E1,2E0,4.6E1,6.2E1,9.7E1,4.4E1,8.5E1,6E0,1.14E2,5.6E1,6.6E1,1.6E1,9.5E1,7E0,2E0,9E0,1.02E2,2.4E1,3E0,5.2E1,5E0,2.2E1,8.5E1,9E0,4.2E1,2.4E1,1.39E2,1.06E2,4.5E1,3E0,4.1E1,4.5E1,1E0,5E0,5.7E1,7.3E1,2.4E1,3.7E1,7E0,3E0,8.2E1,5E0,1E0,5.2E1,6.2E1,4.7E1,9E0,3.4E1,3.2E1,1E1,6E0,9E1,5E0,1E0,6E0,3E0,6E0,2.4E1,7.8E1,1.9E1,5E0,2E0,1E0,1E0,5.1E1,2E0,3E0,6E0,1.6E1,8.2E1,3E0,7E0,2E0,2.1E1,2.1E1,8E0,1.6E1,7.5E1,6.4E1,6.7E1,3.9E1,2.1E1,2.4E1,2E0,1E0,3.4E1,7E0],"tree_param":{"num_deleted":"0","num_feature":"20","num_nodes":"117","size_leaf_vector":"1"}},{"base_weights":[-3.106771E-2,-6.378333E0,4.858414E0,-8.416038E0,-4.319297E0,1.5557398E0,7.0806146E0,-9.857373E0,-7.1857557E0,-5.137874E0,-3.0554366E0,-2.5042333E-2,2.3886642E0,5.3368254E0,8.469785E0,-8.538669E0,-1.0860402E1,-5.0889163E0,-7.977811E0,-4.6199803E0,-6.680466E0,-2.5812628E0,-5.440189E0,-7.803042E-1,2.8329067E0,3.5139856E0,1.0486711E0,6.9821076E0,4.505506E0,7.642335E0,9.911055E0,-8.636979E0,-6.1084606E-2,-2.1154499E-1,-1.0987558E1,-5.322631E0,1.4739166E-1,-7.122644E0,-1.005349E1,-4.2532153E0,-7.8193974E0,-2.6377938E0,-7.825585E0,-3.2231927E0,8.179869E-1,-3.2558131E0,-7.0805464E0,1.7982873E-1,-3.4597971E0,5.952008E0,-5.2227E-1,2.3967302E0,4.8291025E0,2.5372984E0,-8.1053615E-1,9.300312E0,5.019845E0,3.260972E0,5.2635107E0,7.973225E0,4.0212317E0,7.881161E0,1.1681362E1,-4.9978492E-1,-3.7578982E-1,-3.4889746E-1,-5.6585395E-1,-1.8165168E-1,-3.0387434E-1,-1.9889836E-1,-3.861268E-1,-5.228404E-1,6.1233472E-2,-2.291452E-1,-1.9492175E-2,-6.752345E-2,-4.436398E-1,2.6379745E-3,-2.4443574E-1,-2.6042968E-1,-4.5364904E-1,3.5332642E-2,-1.7117552E-1,1.3469467E-1,-1.1233606E-1,-3.845078E-2,-1.8906927E-1,-3.7963948E-1,-6.1758853E-2,7.764965E-2,-5.2077025E-2,8.814148E-2,-2.3260391E-1,-1.1934557E-1,3.463542E-1,-2.2310245E-1,3.559453E-2,8.712264E-2,3.028046E-1,2.5590298E-1,-7.019558E-2,6.648254E-2,2.4058166E-1,7.1989425E-2,-1.7351995E-1,5.054777E-1,1.6160953E-1,2.8656206E-1,7.5979712E-3,1.7388014E-1,-2.1634321E-1,2.7562657E-1,6.343403E-3,4.061059E-1,1.4982389E-1,6.5299295E-2,2.7598903E-1,1.3154568E-1,4.2358348E-1,5.9535116E-1,3.8165666E-2],"categories":[],"categories_nodes":[],"categories_segments":[],"categories_sizes":[],"default_left":[0,0,0,0,0,0,0,0,0,0,0,0,0,0,0,0,0,0,0,0,0,0,0,0,0,0,0,0,0,0,0,0,0,0,0,0,0,0,0,0,0,0,0,0,0,0,0,0,0,0,0,0,0,0,0,0,0,0,0,0,0,0,0,0,0,0,0,0,0,0,0,0,0,0,0,0,0,0,0,0,0,0,0,0,0,0,0,0,0,0,0,0,0,0,0,0,0,0,0,0,0,0,0,0,0,0,0,0,0,0,0,0,0,0,0,0,0,0,0,0,0],"id":4,"left_children":[1,3,5,7,9,11,13,15,17,19,21,23,25,27,29,31,33,35,37,39,41,43,45,47,49,51,53,55,57,59,61,63,-1,-1,65,67,-1,69,71,73,75,77,79,81,83,85,87,89,91,93,95,97,99,101,103,105,107,109,111,113,115,117,119,-1,-1,-1,-1,-1,-1,-1,-1,-1,-1,-1,-1,-1,-1,-1,-1,-1,-1,-1,-1,-1,-1,-1,-1,-1,-1,-1,-1,-1,-1,-1,-1,-1,-1,-1,-1,-1,-1,-1,-1,-1,-1,-1,-1,-1,-1,-1,-1,-1,-1,-1,-1,-1,-1,-1,-1,-1,-1],"loss_changes":[4.2579754E4,2.4684863E3,5.676867E3,4.593672E2,2.936372E2,4.1217816E2,1.0763809E3,8.5831055E1,2.3343555E2,1.1293799E2,1.21651855E2,2.3748701E2,3.054392E2,2.5303467E2,2.2955664E2,3.47666E1,1.5050781E1,1.0584888E2,1.3784912E2,1.2867627E2,1.7841931E2,2.252088E2,4.502704E1,2.2444441E2,2.4380664E2,1.5152051E2,2.649849E2,2.6264062E2,1.1584985E2,1.6803516E2,2.3135547E2,1.9323242E1,0E0,0E0,1.4838867E1,3.7864258E1,0E0,1.3340283E2,1.5836353E2,1.5870117E2,7.660431E1,6.687639E1,6.046875E1,7.011987E1,1.03787224E2,1.0161972E1,2.0564087E1,1.10631645E2,1.5141809E2,1.1410733E2,6.152433E1,1.3789032E2,9.723901E1,1.3917175E2,2.623755E2,1.1464136E2,1.3418579E2,1.0709772E2,1.0930591E2,8.8293945E1,5.7894073E1,1.1722583E2,1.0424512E2,0E0,0E0,0E0,0E0,0E0,0E0,0E0,0E0,0E0,0E0,0E0,0E0,0E0,0E0,0E0,0E0,0E0,0E0,0E0,0E0,0E0,0E0,0E0,0E0,0E0,0E0,0E0,0E0,0E0,0E0,0E0,0E0,0E0,0E0,0E0,0E0,0E0,0E0,0E0,0E0,0E0,0E0,0E0,0E0,0E0,0E0,0E0,0E0,0E0,0E0,0E0,0E0,0E0,0E0,0E0,0E0,0E0,0E0],"parents":[2147483647,0,0,1,1,2,2,3,3,4,4,5,5,6,6,7,7,8,8,9,9,10,10,11,11,12,12,13,13,14,14,15,15,16,16,17,17,18,18,19,19,20,20,21,21,22,22,23,23,24,24,25,25,26,26,27,27,28,28,29,29,30,30,31,31,34,34,35,35,37,37,38,38,39,39,40,40,41,41,42,42,43,43,44,44,45,45,46,46,47,47,48,48,49,49,50,50,51,51,52,52,53,53,54,54,55,55,56,56,57,57,58,58,59,59,60,60,61,61,62,62],"right_children":[2,4,6,8,10,12,14,16,18,20,22,24,26,28,30,32,34,36,38,40,42,44,46,48,50,52,54,56,58,60,62,64,-1,-1,66,68,-1,70,72,74,76,78,80,82,84,86,88,90,92,94,96,98,100,102,104,106,108,110,112,114,116,118,120,-1,-1,-1,-1,-1,-1,-1,-1,-1,-1,-1,-1,-1,-1,-1,-1,-1,-1,-1,-1,-1,-1,-1,-1,-1,-1,-1,-1,-1,-1,-1,-1,-1,-1,-1,-1,-1,-1,-1,-1,-1,-1,-1,-1,-1,-1,-1,-1,-1,-1,-1,-1,-1,-1,-1,-1,-1,-1],"split_conditions":[1.8571428E1,1.2857142E1,2.5428572E1,1.0142858E1,1.5857142E1,2.1571428E1,2.8428572E1,9E0,9E0,1.8E1,2.3E1,6.3592105E0,2.4E1,2.5E1,3.2E1,1.1E1,1E0,1.2714286E1,5.871643E0,2.3E1,1E1,6.5283265E0,6.852181E0,5.9080253E0,1.8E1,2.3571428E1,2.4E1,2.6E1,2.6857143E1,3.8E1,3.0857143E1,9.142858E0,-6.1084606E-2,-2.1154499E-1,4E0,1E1,1.4739166E-1,7E0,6.9031763E0,7.4992065E0,5.511227E0,5.8333073E0,1.1E1,1E1,1.6E1,1.6285715E1,1.7285715E1,2.1E1,1.4E1,1.1E1,1.4E1,6.3094788E0,3.5E1,2.5E1,5.2140975E0,1.4E1,3.7E1,4.2857143E-1,3.7E1,4.1E1,3.1285715E1,2.8214285E1,5E1,-4.9978492E-1,-3.7578982E-1,-3.4889746E-1,-5.6585395E-1,-1.8165168E-1,-3.0387434E-1,-1.9889836E-1,-3.861268E-1,-5.228404E-1,6.1233472E-2,-2.291452E-1,-1.9492175E-2,-6.752345E-2,-4.436398E-1,2.6379745E-3,-2.4443574E-1,-2.6042968E-1,-4.5364904E-1,3.5332642E-2,-1.7117552E-1,1.3469467E-1,-1.1233606E-1,-3.845078E-2,-1.8906927E-1,-3.7963948E-1,-6.1758853E-2,7.764965E-2,-5.2077025E-2,8.814148E-2,-2.3260391E-1,-1.1934557E-1,3.463542E-1,-2.2310245E-1,3.559453E-2,8.712264E-2,3.028046E-1,2.5590298E-1,-7.019558E-2,6.648254E-2,2.4058166E-1,7.1989425E-2,-1.7351995E-1,5.054777E-1,1.6160953E-1,2.8656206E-1,7.5979712E-3,1.7388014E-1,-2.1634321E-1,2.7562657E-1,6.343403E-3,4.061059E-1,1.4982389E-1,6.5299295E-2,2.7598903E-1,1.3154568E-1,4.2358348E-1,5.9535116E-1,3.8165666E-2],"split_indices":[7,7,7,7,7,7,7,1,0,0,0,10,2,2,6,12,4,7,8,1,1,8,8,8,2,7,1,1,7,0,7,9,0,0,0,2,0,2,10,8,10,10,2,2,2,9,7,1,2,4,6,8,4,9,10,14,1,16,1,1,7,9,3,0,0,0,0,0,0,0,0,0,0,0,0,0,0,0,0,0,0,0,0,0,0,0,0,0,0,0,0,0,0,0,0,0,0,0,0,0,0,0,0,0,0,0,0,0,0,0,0,0,0,0,0,0,0,0,0,0,0],"split_type":[0,0,0,0,0,0,0,0,0,0,0,0,0,0,0,0,0,0,0,0,0,0,0,0,0,0,0,0,0,0,0,0,0,0,0,0,0,0,0,0,0,0,0,0,0,0,0,0,0,0,0,0,0,0,0,0,0,0,0,0,0,0,0,0,0,0,0,0,0,0,0,0,0,0,0,0,0,0,0,0,0,0,0,0,0,0,0,0,0,0,0,0,0,0,0,0,0,0,0,0,0,0,0,0,0,0,0,0,0,0,0,0,0,0,0,0,0,0,0,0,0],"sum_hessian":[1.37E3,5.96E2,7.74E2,2.98E2,2.98E2,3.12E2,4.62E2,1.34E2,1.64E2,1.79E2,1.19E2,1.08E2,2.04E2,2.07E2,2.55E2,6.2E1,7.2E1,4.7E1,1.17E2,1.37E2,4.2E1,1.01E2,1.8E1,8.6E1,2.2E1,1.1E2,9.4E1,6.7E1,1.4E2,1.66E2,8.9E1,6.1E1,1E0,2E0,7E1,4.6E1,1E0,8.6E1,3.1E1,1.25E2,1.2E1,1E1,3.2E1,8.5E1,1.6E1,9E0,9E0,6.4E1,2.2E1,1.1E1,1.1E1,6.1E1,4.9E1,5.2E1,4.2E1,2.9E1,3.8E1,5.5E1,8.5E1,1.51E2,1.5E1,4.4E1,4.5E1,2.4E1,3.7E1,7E0,6.3E1,1.6E1,3E1,1.5E1,7.1E1,3E1,1E0,1.15E2,1E1,2E0,1E1,5E0,5E0,1.2E1,2E1,4E0,8.1E1,1E1,6E0,2E0,7E0,8E0,1E0,3E1,3.4E1,4E0,1.8E1,1E0,1E1,2E0,9E0,5.3E1,8E0,4.7E1,2E0,3.5E1,1.7E1,2.3E1,1.9E1,2.5E1,4E0,3.3E1,5E0,5.4E1,1E0,8.1E1,4E0,1.46E2,5E0,6E0,9E0,5E0,3.9E1,4.4E1,1E0],"tree_param":{"num_deleted":"0","num_feature":"20","num_nodes":"121","size_leaf_vector":"1"}},{"base_weights":[1.0882378E-1,-5.5139694E0,5.080328E0,-7.9382725E0,-3.4838755E0,2.5927503E0,7.6155853E0,-1.0280863E1,-7.4866595E0,-4.5842156E0,-1.5902382E0,1.8534869E0,4.4799533E0,6.8089557E0,1.3308902E1,-1.1104177E1,-3.7000367E-1,-2.3279636E0,-7.603493E0,-4.053581E0,-5.87594E0,-1.1959722E0,-3.8721375E0,1.5110462E0,4.746958E0,3.9902718E0,9.857348E0,5.986245E0,8.909894E0,9.7713375E0,1.5849733E1,-1.6033001E-1,-5.6253856E-1,-2.78318E-1,1.492423E0,-9.273895E0,-7.2713957E0,-4.524608E0,-1.1566515E0,-1.735218E0,-6.5339265E0,-5.396248E-1,-2.6620243E0,-2.3700235E0,-3.365857E-1,1.7487469E0,-2.2027426E0,5.326473E0,-1.8578326E0,2.1452074E0,4.567482E0,1.1193891E1,1.253891E-2,4.6246967E0,6.708804E0,9.679923E0,5.1244864E0,1.017339E1,4.3257236E-2,8.122265E-1,1.6923542E-1,1.14155775E-2,1.3211894E-1,-4.973587E-1,-1.4877361E-1,-3.065257E-1,-3.9656982E-1,3.4755725E-2,-2.3422077E-1,-1.8768649E-1,6.6770664E-3,5.226338E-2,-1.5380894E-1,-1.2228275E-2,-3.4495467E-1,-2.432171E-1,-6.1618867E-3,-2.0826726E-1,1.0123429E-2,-1.8073913E-1,2.9674951E-2,2.9059706E-2,1.3363485E-1,1.3000779E-1,-1.8100736E-1,1.305987E-1,4.3953058E-1,3.7128594E-2,-1.7646603E-1,8.766334E-3,1.5309483E-1,3.0862293E-1,1.8014817E-1,6.31633E-1,6.403198E-2,2.4617814E-1,-4.05763E-3,1.3732584E-1,3.4861034E-1,9.689508E-2,4.8808357E-1,2.9787982E-1,9.667517E-2,2.5165948E-1,5.5719334E-1],"categories":[],"categories_nodes":[],"categories_segments":[],"categories_sizes":[],"default_left":[0,0,0,0,0,0,0,0,0,0,0,0,0,0,0,0,0,0,0,0,0,0,0,0,0,0,0,0,0,0,0,0,0,0,0,0,0,0,0,0,0,0,0,0,0,0,0,0,0,0,0,0,0,0,0,0,0,0,0,0,0,0,0,0,0,0,0,0,0,0,0,0,0,0,0,0,0,0,0,0,0,0,0,0,0,0,0,0,0,0,0,0,0,0,0,0,0,0,0,0,0,0,0,0,0],"id":5,"left_children":[1,3,5,7,9,11,13,15,17,19,21,23,25,27,29,31,-1,33,35,37,39,41,43,45,47,49,51,53,55,57,59,-1,-1,-1,61,63,65,67,69,71,73,75,77,79,-1,81,83,85,87,89,91,93,-1,95,97,99,101,103,-1,-1,-1,-1,-1,-1,-1,-1,-1,-1,-1,-1,-1,-1,-1,-1,-1,-1,-1,-1,-1,-1,-1,-1,-1,-1,-1,-1,-1,-1,-1,-1,-1,-1,-1,-1,-1,-1,-1,-1,-1,-1,-1,-1,-1,-1,-1],"loss_changes":[3.8660082E4,3.1664395E3,4.609336E3,2.3512305E2,7.324038E2,5.1068848E2,1.5764219E3,2.4559082E1,1.335791E2,1.2971875E2,1.1412616E2,2.593637E2,2.3452051E2,4.9977148E2,2.4061426E2,2.128418E0,0E0,9.4910835E1,6.8475586E1,2.1582056E2,1.603081E2,1.0825879E2,6.565848E1,2.1748254E2,1.1706793E2,9.350574E1,9.9909424E1,1.9819922E2,2.069043E2,6.639465E1,6.3125E1,0E0,0E0,0E0,5.211404E0,1.2730444E2,1.0875E2,1.1920337E2,8.091884E1,4.050065E1,1.2233276E2,1.4346101E2,1.515622E2,5.3789566E1,0E0,2.4440399E2,1.1152768E2,2.2152759E2,1.5660408E1,4.4607384E1,9.076709E1,8.366229E1,0E0,1.185387E2,1.3740186E2,2.6650879E1,3.367444E1,4.3679443E1,0E0,0E0,0E0,0E0,0E0,0E0,0E0,0E0,0E0,0E0,0E0,0E0,0E0,0E0,0E0,0E0,0E0,0E0,0E0,0E0,0E0,0E0,0E0,0E0,0E0,0E0,0E0,0E0,0E0,0E0,0E0,0E0,0E0,0E0,0E0,0E0,0E0,0E0,0E0,0E0,0E0,0E0,0E0,0E0,0E0,0E0,0E0],"parents":[2147483647,0,0,1,1,2,2,3,3,4,4,5,5,6,6,7,7,8,8,9,9,10,10,11,11,12,12,13,13,14,14,15,15,17,17,18,18,19,19,20,20,21,21,22,22,23,23,24,24,25,25,26,26,27,27,28,28,29,29,30,30,34,34,35,35,36,36,37,37,38,38,39,39,40,40,41,41,42,42,43,43,45,45,46,46,47,47,48,48,49,49,50,50,51,51,53,53,54,54,55,55,56,56,57,57],"right_children":[2,4,6,8,10,12,14,16,18,20,22,24,26,28,30,32,-1,34,36,38,40,42,44,46,48,50,52,54,56,58,60,-1,-1,-1,62,64,66,68,70,72,74,76,78,80,-1,82,84,86,88,90,92,94,-1,96,98,100,102,104,-1,-1,-1,-1,-1,-1,-1,-1,-1,-1,-1,-1,-1,-1,-1,-1,-1,-1,-1,-1,-1,-1,-1,-1,-1,-1,-1,-1,-1,-1,-1,-1,-1,-1,-1,-1,-1,-1,-1,-1,-1,-1,-1,-1,-1,-1,-1],"split_conditions":[1.9857143E1,1.2714286E1,2.7142857E1,9E0,1.6571428E1,2.5428572E1,1E0,1.4E1,1E0,1E0,2.4E1,1E0,1E0,3.0714285E1,5.6987886E0,1E0,-3.7000367E-1,1.0142858E1,7E0,1.7142857E0,1E1,2.1E1,5E-1,7.4992065E0,2.4714285E1,-8.5714287E-1,2.7E1,2.8428572E1,3.9E1,3.7E1,4.4E1,-1.6033001E-1,-5.6253856E-1,-2.78318E-1,1.2E1,1.8E1,1.1E1,4E0,7E0,4.2857143E-1,5E0,1.5285714E1,7.8571427E-1,1.8571428E1,-3.365857E-1,2.3E1,2E1,5.9681697E0,1E1,2.5E1,2.1428572E-1,2.8E1,1.253891E-2,2.9428572E1,2.2E1,1.8E1,4.2E1,3.9581141E0,4.3257236E-2,8.122265E-1,1.6923542E-1,1.14155775E-2,1.3211894E-1,-4.973587E-1,-1.4877361E-1,-3.065257E-1,-3.9656982E-1,3.4755725E-2,-2.3422077E-1,-1.8768649E-1,6.6770664E-3,5.226338E-2,-1.5380894E-1,-1.2228275E-2,-3.4495467E-1,-2.432171E-1,-6.1618867E-3,-2.0826726E-1,1.0123429E-2,-1.8073913E-1,2.9674951E-2,2.9059706E-2,1.3363485E-1,1.3000779E-1,-1.8100736E-1,1.305987E-1,4.3953058E-1,3.7128594E-2,-1.7646603E-1,8.766334E-3,1.5309483E-1,3.0862293E-1,1.8014817E-1,6.31633E-1,6.403198E-2,2.4617814E-1,-4.05763E-3,1.3732584E-1,3.4861034E-1,9.689508E-2,4.8808357E-1,2.9787982E-1,9.667517E-2,2.5165948E-1,5.5719334E-1],"split_indices":[7,7,7,9,7,7,15,6,5,18,2,15,15,7,8,3,0,7,4,11,2,3,11,8,9,11,7,7,3,3,3,0,0,0,2,5,5,3,4,11,6,9,11,7,0,7,2,8,2,6,11,2,0,9,4,2,3,8,0,0,0,0,0,0,0,0,0,0,0,0,0,0,0,0,0,0,0,0,0,0,0,0,0,0,0,0,0,0,0,0,0,0,0,0,0,0,0,0,0,0,0,0,0,0,0],"split_type":[0,0,0,0,0,0,0,0,0,0,0,0,0,0,0,0,0,0,0,0,0,0,0,0,0,0,0,0,0,0,0,0,0,0,0,0,0,0,0,0,0,0,0,0,0,0,0,0,0,0,0,0,0,0,0,0,0,0,0,0,0,0,0,0,0,0,0,0,0,0,0,0,0,0,0,0,0,0,0,0,0,0,0,0,0,0,0,0,0,0,0,0,0,0,0,0,0,0,0,0,0,0,0,0,0],"sum_hessian":[1.381E3,6.48E2,7.33E2,2.94E2,3.54E2,3.71E2,3.62E2,4.4E1,2.5E2,2.23E2,1.31E2,2.68E2,1.03E2,3.19E2,4.3E1,3.2E1,1.2E1,6E0,2.44E2,1.61E2,6.2E1,1.13E2,1.8E1,2.41E2,2.7E1,9.6E1,7E0,2.32E2,8.7E1,2E1,2.3E1,1E0,3.1E1,3E0,3E0,3.6E1,2.08E2,1.38E2,2.3E1,9E0,5.3E1,7.9E1,3.4E1,1.3E1,5E0,2.27E2,1.4E1,2.5E1,2E0,2.4E1,7.2E1,6E0,1E0,8.3E1,1.49E2,7.1E1,1.6E1,1.9E1,1E0,2.2E1,1E0,2E0,1E0,3.2E1,4E0,8E1,1.28E2,4E0,1.34E2,7E0,1.6E1,3E0,6E0,3E0,5E1,6E0,7.3E1,2.2E1,1.2E1,9E0,4E0,1.01E2,1.26E2,3E0,1.1E1,1.5E1,1E1,1E0,1E0,8E0,1.6E1,2.5E1,4.7E1,5E0,1E0,7.8E1,5E0,1E1,1.39E2,1E0,7E1,1.2E1,4E0,4E0,1.5E1],"tree_param":{"num_deleted":"0","num_feature":"20","num_nodes":"105","size_leaf_vector":"1"}},{"base_weights":[-1.4179173E-1,-5.1694965E0,4.989481E0,-6.798835E0,-2.2053316E0,3.291924E0,7.81249E0,-7.5073547E0,-5.0458074E0,-2.914818E0,-5.2991813E-1,2.2535708E0,4.5041995E0,7.069738E0,1.0384867E1,-6.0901647E0,-8.051045E0,-3.8710063E0,-5.9142866E0,-1.9982717E0,-3.9424791E0,8.342197E-1,-3.1328785E0,5.1159506E0,2.003448E0,4.7011256E0,-1.09837E-1,7.836802E0,5.884794E0,1.246299E1,6.951696E0,-3.184219E0,-6.4862537E0,-5.687443E-1,-7.6184187E0,-3.031615E0,-5.937394E0,-3.637482E0,-6.807598E0,-1.6608891E0,-3.8357508E-1,-6.688122E0,-2.8700354E0,-1.3689719E-1,3.9892802E-1,1.5239143E-1,-5.195697E0,5.755416E0,1.5004475E-4,3.1678178E0,1.4549303E0,6.1213164E0,4.0204153E0,-1.3691391E-1,1.0323287E0,7.9861913E0,1.5453086E0,6.1965437E0,1.6148638E0,1.2808965E1,3.4794617E-2,3.640194E0,8.475151E0,-2.1117876E-1,1.0511327E-2,-3.546206E-1,-2.282909E-1,-4.942945E-2,-3.890423E-1,-1.6911718E-1,1.9026814E-2,-3.221528E-1,4.118819E-2,-2.6266143E-1,2.434826E-3,4.654069E-2,-3.4887916E-1,-1.0844989E-1,1.5765435E-1,-7.2045684E-2,-3.7203953E-1,-1.0240143E-1,-2.414379E-1,1.20545685E-1,-4.668632E-2,1.2636463E-1,-7.828684E-2,-3.6608983E-2,-3.084709E-1,3.0564564E-1,9.824181E-3,8.243813E-2,-8.242688E-2,1.9498108E-1,-2.8611723E-2,9.425978E-2,-7.827825E-2,4.1501927E-1,2.558734E-1,2.4713242E-1,1.5110706E-1,1.4449163E-1,1.2055302E-2,3.480309E-1,4.697764E-1,-1.918459E-3,1.04299545E-1,1.410098E-1,3.329192E-1,-1.4588508E-2,2.1271496E-1,3.2635385E-1,6.865267E-1,2.6285574E-1,1.21360004E-1,4.5443407E-1,1.4957349E-1],"categories":[],"categories_nodes":[],"categories_segments":[],"categories_sizes":[],"default_left":[0,0,0,0,0,0,0,0,0,0,0,0,0,0,0,0,0,0,0,0,0,0,0,0,0,0,0,0,0,0,0,0,0,0,0,0,0,0,0,0,0,0,0,0,0,0,0,0,0,0,0,0,0,0,0,0,0,0,0,0,0,0,0,0,0,0,0,0,0,0,0,0,0,0,0,0,0,0,0,0,0,0,0,0,0,0,0,0,0,0,0,0,0,0,0,0,0,0,0,0,0,0,0,0,0,0,0,0,0,0,0,0,0,0,0,0,0],"id":6,"left_children":[1,3,5,7,9,11,13,15,17,19,21,23,25,27,29,31,33,35,37,39,41,43,45,47,49,51,53,55,57,59,61,63,65,-1,67,69,71,73,75,77,-1,79,81,83,-1,85,87,89,91,93,95,97,99,-1,101,103,105,107,109,111,-1,113,115,-1,-1,-1,-1,-1,-1,-1,-1,-1,-1,-1,-1,-1,-1,-1,-1,-1,-1,-1,-1,-1,-1,-1,-1,-1,-1,-1,-1,-1,-1,-1,-1,-1,-1,-1,-1,-1,-1,-1,-1,-1,-1,-1,-1,-1,-1,-1,-1,-1,-1,-1,-1,-1,-1],"loss_changes":[3.5498766E4,3.3415957E3,3.2377812E3,5.1856055E2,2.932489E2,5.2734424E2,4.1379395E2,1.9521875E2,1.11783936E2,1.5601233E2,2.6892328E2,1.558501E2,1.7860669E2,1.3657715E2,3.0576123E2,8.5239746E1,2.383252E2,8.4336E1,1.2574585E2,1.6717899E2,2.1931311E2,3.479917E2,1.7699158E2,5.888394E1,1.3270673E2,1.5713623E2,2.984584E1,9.950537E1,1.00479004E2,1.2543359E2,8.518201E1,4.675241E1,6.074414E1,0E0,2.1091211E2,5.3943634E1,6.0009277E1,1.3724225E2,7.4896484E1,2.2698102E2,0E0,7.6165405E1,8.671561E1,9.36088E1,0E0,4.884131E1,6.502237E1,3.0595703E1,1.08721895E1,1.8834644E2,1.9529428E2,8.658301E1,1.0474609E2,0E0,9.591137E0,1.0226465E2,3.505104E0,1.0129028E2,3.6468338E1,9.563379E1,0E0,4.891777E0,2.3277588E1,0E0,0E0,0E0,0E0,0E0,0E0,0E0,0E0,0E0,0E0,0E0,0E0,0E0,0E0,0E0,0E0,0E0,0E0,0E0,0E0,0E0,0E0,0E0,0E0,0E0,0E0,0E0,0E0,0E0,0E0,0E0,0E0,0E0,0E0,0E0,0E0,0E0,0E0,0E0,0E0,0E0,0E0,0E0,0E0,0E0,0E0,0E0,0E0,0E0,0E0,0E0,0E0,0E0,0E0],"parents":[2147483647,0,0,1,1,2,2,3,3,4,4,5,5,6,6,7,7,8,8,9,9,10,10,11,11,12,12,13,13,14,14,15,15,16,16,17,17,18,18,19,19,20,20,21,21,22,22,23,23,24,24,25,25,26,26,27,27,28,28,29,29,30,30,31,31,32,32,34,34,35,35,36,36,37,37,38,38,39,39,41,41,42,42,43,43,45,45,46,46,47,47,48,48,49,49,50,50,51,51,52,52,54,54,55,55,56,56,57,57,58,58,59,59,61,61,62,62],"right_children":[2,4,6,8,10,12,14,16,18,20,22,24,26,28,30,32,34,36,38,40,42,44,46,48,50,52,54,56,58,60,62,64,66,-1,68,70,72,74,76,78,-1,80,82,84,-1,86,88,90,92,94,96,98,100,-1,102,104,106,108,110,112,-1,114,116,-1,-1,-1,-1,-1,-1,-1,-1,-1,-1,-1,-1,-1,-1,-1,-1,-1,-1,-1,-1,-1,-1,-1,-1,-1,-1,-1,-1,-1,-1,-1,-1,-1,-1,-1,-1,-1,-1,-1,-1,-1,-1,-1,-1,-1,-1,-1,-1,-1,-1,-1,-1,-1,-1],"split_conditions":[2.0857143E1,1.4857142E1,2.8428572E1,1.2857142E1,1.8571428E1,2.5428572E1,3.1857143E1,8E0,1.3E1,1.7E1,2.2E1,1.7E1,3.7E1,3.1E1,3.4E1,1E0,8.571428E0,1.9E1,1.2928572E1,2.9E1,1.5857142E1,7.273566E0,4.86484E0,8E0,2.1E1,2.5E1,3.8E1,4.2E1,6.7541876E0,5.2E1,2.8E1,1.3E1,1E0,-5.687443E-1,1E0,2.2E1,1.2E1,1.2285714E1,2E0,7.2275925E0,-3.8357508E-1,1E1,2.857143E-1,1.7E1,3.9892802E-1,2.5E1,1.4E1,2.7E1,1.5E1,3E1,6.202918E0,2.4E1,2.7E1,-1.3691391E-1,4E1,2.9714285E1,3.2E1,2.3E1,4E1,4.775932E0,3.4794617E-2,2.9E1,3.8E1,-2.1117876E-1,1.0511327E-2,-3.546206E-1,-2.282909E-1,-4.942945E-2,-3.890423E-1,-1.6911718E-1,1.9026814E-2,-3.221528E-1,4.118819E-2,-2.6266143E-1,2.434826E-3,4.654069E-2,-3.4887916E-1,-1.0844989E-1,1.5765435E-1,-7.2045684E-2,-3.7203953E-1,-1.0240143E-1,-2.414379E-1,1.20545685E-1,-4.668632E-2,1.2636463E-1,-7.828684E-2,-3.6608983E-2,-3.084709E-1,3.0564564E-1,9.824181E-3,8.243813E-2,-8.242688E-2,1.9498108E-1,-2.8611723E-2,9.425978E-2,-7.827825E-2,4.1501927E-1,2.558734E-1,2.4713242E-1,1.5110706E-1,1.4449163E-1,1.2055302E-2,3.480309E-1,4.697764E-1,-1.918459E-3,1.04299545E-1,1.410098E-1,3.329192E-1,-1.4588508E-2,2.1271496E-1,3.2635385E-1,6.865267E-1,2.6285574E-1,1.21360004E-1,4.5443407E-1,1.4957349E-1],"split_indices":[7,7,7,7,7,7,7,2,1,0,0,5,1,2,0,13,7,0,9,1,7,8,8,12,2,2,1,3,8,3,4,3,18,0,5,2,12,9,3,8,0,3,16,1,0,0,2,0,0,6,8,3,0,0,1,9,0,4,2,8,0,2,3,0,0,0,0,0,0,0,0,0,0,0,0,0,0,0,0,0,0,0,0,0,0,0,0,0,0,0,0,0,0,0,0,0,0,0,0,0,0,0,0,0,0,0,0,0,0,0,0,0,0,0,0,0,0],"split_type":[0,0,0,0,0,0,0,0,0,0,0,0,0,0,0,0,0,0,0,0,0,0,0,0,0,0,0,0,0,0,0,0,0,0,0,0,0,0,0,0,0,0,0,0,0,0,0,0,0,0,0,0,0,0,0,0,0,0,0,0,0,0,0,0,0,0,0,0,0,0,0,0,0,0,0,0,0,0,0,0,0,0,0,0,0,0,0,0,0,0,0,0,0,0,0,0,0,0,0,0,0,0,0,0,0,0,0,0,0,0,0,0,0,0,0,0,0],"sum_hessian":[1.374E3,6.94E2,6.8E2,4.47E2,2.47E2,4.26E2,2.54E2,3.16E2,1.31E2,1.73E2,7.4E1,2.31E2,1.95E2,2E2,5.4E1,9.1E1,2.25E2,5.8E1,7.3E1,9.3E1,8E1,4.9E1,2.5E1,1.7E1,2.14E2,1.87E2,8E0,1.18E2,8.2E1,3.2E1,2.2E1,1.2E1,7.9E1,2.3E1,2.02E2,4.3E1,1.5E1,2.2E1,5.1E1,8.9E1,4E0,2.1E1,5.9E1,4.4E1,5E0,1E1,1.5E1,1.5E1,2E0,6.7E1,1.47E2,5.8E1,1.29E2,2E0,6E0,1.15E2,3E0,7.6E1,6E0,3.1E1,1E0,8E0,1.4E1,9E0,3E0,5.8E1,2.1E1,5E0,1.97E2,3.9E1,4E0,1.4E1,1E0,1.5E1,7E0,1E0,5E1,8.1E1,8E0,3E0,1.8E1,4.3E1,1.6E1,1E1,3.4E1,4E0,6E0,3E0,1.2E1,1.4E1,1E0,1E0,1E0,5.6E1,1.1E1,1.29E2,1.8E1,1.6E1,4.2E1,6.5E1,6.4E1,1E0,5E0,7E1,4.5E1,1E0,2E0,1E1,6.6E1,4E0,2E0,5E0,2.6E1,2E0,6E0,1.2E1,2E0],"tree_param":{"num_deleted":"0","num_feature":"20","num_nodes":"117","size_leaf_vector":"1"}},{"base_weights":[1.6268359E-1,-4.769625E0,4.947423E0,-7.049524E0,-2.6743405E0,2.5536106E0,6.940808E0,-8.057234E0,-6.077407E0,-3.843999E0,-1.335594E0,2.122922E0,6.816994E0,6.170037E0,1.2191606E1,-8.541123E0,-6.428328E0,-5.355748E0,-8.8065195E0,-3.1156259E0,-4.9944487E0,-1.8282068E0,1.6962577E0,8.8367075E-1,2.8522413E0,8.069145E0,6.7222434E-1,5.4966545E0,7.6823955E0,8.037572E0,1.4636056E1,-4.492302E-2,-8.598765E0,-7.510932E0,-3.2763412E0,-5.7167926E0,-1.7753716E0,-1.6859108E-1,-9.418752E0,-4.4748015E0,-2.3707926E0,-8.548698E0,-4.4801645E0,-2.2372284E0,8.400403E-1,-5.541808E-1,7.240777E0,2.4715028E0,1.7107391E-1,3.1225832E0,-1.2828766E0,2.8380225E0,9.296387E0,2.1674488E0,-1.7009746E-1,3.3750427E0,5.80102E0,7.7368917E0,5.5818368E-2,8.596513E0,1.0023665E-1,7.676358E-1,3.1593737E-1,-4.3259344E-1,-6.0969688E-2,-4.072817E-1,-1.4176197E-1,-8.12387E-2,-2.6317903E-1,-2.0468202E-1,-3.2204944E-1,-1.8920577E-1,2.0962584E-1,-4.8688418E-1,-4.243803E-3,-1.2861001E-1,-2.8576514E-1,-9.286436E-2,-3.3479968E-1,-1.5869449E-1,-4.9056602E-1,-1.2668112E-1,-2.742902E-1,9.285303E-2,-1.2287092E-1,2.7275953E-1,-1.4764579E-2,-1.0186448E-1,1.85468E-1,8.673821E-2,3.9346594E-1,2.2794281E-1,6.3749604E-2,-1.6380135E-2,1.7724837E-1,2.0390515E-1,1.1568483E-1,-3.2022783E-1,1.9095747E-2,1.9424109E-1,-5.989933E-2,4.9928543E-1,2.1075015E-1,1.2531503E-1,2.0301057E-2,2.3152526E-1,8.217425E-2,3.051958E-1,1.6311742E-1,3.8947105E-1,6.341243E-2,2.691796E-1,4.8771706E-1],"categories":[],"categories_nodes":[],"categories_segments":[],"categories_sizes":[],"default_left":[0,0,0,0,0,0,0,0,0,0,0,0,0,0,0,0,0,0,0,0,0,0,0,0,0,0,0,0,0,0,0,0,0,0,0,0,0,0,0,0,0,0,0,0,0,0,0,0,0,0,0,0,0,0,0,0,0,0,0,0,0,0,0,0,0,0,0,0,0,0,0,0,0,0,0,0,0,0,0,0,0,0,0,0,0,0,0,0,0,0,0,0,0,0,0,0,0,0,0,0,0,0,0,0,0,0,0,0,0,0,0,0,0],"id":7,"left_children":[1,3,5,7,9,11,13,15,17,19,21,23,25,27,29,31,33,35,37,39,41,43,45,47,49,51,53,55,57,59,61,-1,63,65,67,69,71,-1,73,75,77,79,81,83,85,87,89,91,93,95,97,99,101,103,-1,105,107,109,-1,111,-1,-1,-1,-1,-1,-1,-1,-1,-1,-1,-1,-1,-1,-1,-1,-1,-1,-1,-1,-1,-1,-1,-1,-1,-1,-1,-1,-1,-1,-1,-1,-1,-1,-1,-1,-1,-1,-1,-1,-1,-1,-1,-1,-1,-1,-1,-1,-1,-1,-1,-1,-1,-1],"loss_changes":[3.2685738E4,3.239085E3,3.3368438E3,2.7038574E2,5.538838E2,5.7494507E2,1.4748398E3,6.884473E1,2.8764746E2,1.4365088E2,2.5401389E2,2.6229578E2,2.1770703E2,2.9995312E2,3.6976953E2,4.425879E1,1.1188574E2,1.6694702E2,8.136987E1,1.0986194E2,9.3308716E1,1.6012811E2,3.034751E2,1.24040436E2,2.0969885E2,1.27693115E2,4.392437E1,1.3281738E2,2.750293E1,5.020642E1,7.58501E1,0E0,3.529785E1,6.296753E1,3.083258E1,1.1939282E2,1.8369638E2,0E0,8.847925E1,8.206647E1,1.6302374E2,2.3150696E1,1.1333972E2,1.18155334E2,1.0640542E2,1.21376366E2,1.0573853E1,7.910385E1,1.3071243E2,1.2427734E2,1.0476434E2,3.0003311E1,2.4461548E1,1.9667015E0,0E0,6.1954834E1,1.3772266E2,2.4101074E1,0E0,1.4446777E1,0E0,0E0,0E0,0E0,0E0,0E0,0E0,0E0,0E0,0E0,0E0,0E0,0E0,0E0,0E0,0E0,0E0,0E0,0E0,0E0,0E0,0E0,0E0,0E0,0E0,0E0,0E0,0E0,0E0,0E0,0E0,0E0,0E0,0E0,0E0,0E0,0E0,0E0,0E0,0E0,0E0,0E0,0E0,0E0,0E0,0E0,0E0,0E0,0E0,0E0,0E0,0E0,0E0],"parents":[2147483647,0,0,1,1,2,2,3,3,4,4,5,5,6,6,7,7,8,8,9,9,10,10,11,11,12,12,13,13,14,14,15,15,16,16,17,17,18,18,19,19,20,20,21,21,22,22,23,23,24,24,25,25,26,26,27,27,28,28,29,29,30,30,32,32,33,33,34,34,35,35,36,36,38,38,39,39,40,40,41,41,42,42,43,43,44,44,45,45,46,46,47,47,48,48,49,49,50,50,51,51,52,52,53,53,55,55,56,56,57,57,59,59],"right_children":[2,4,6,8,10,12,14,16,18,20,22,24,26,28,30,32,34,36,38,40,42,44,46,48,50,52,54,56,58,60,62,-1,64,66,68,70,72,-1,74,76,78,80,82,84,86,88,90,92,94,96,98,100,102,104,-1,106,108,110,-1,112,-1,-1,-1,-1,-1,-1,-1,-1,-1,-1,-1,-1,-1,-1,-1,-1,-1,-1,-1,-1,-1,-1,-1,-1,-1,-1,-1,-1,-1,-1,-1,-1,-1,-1,-1,-1,-1,-1,-1,-1,-1,-1,-1,-1,-1,-1,-1,-1,-1,-1,-1,-1,-1],"split_conditions":[2.0857143E1,1.3285714E1,2.7E1,1.0714286E1,1.6571428E1,1E0,1E0,1.4E1,1.7E1,1.7E1,1E0,2.3571428E1,2.9E1,3.0714285E1,5.429198E0,1E0,5.294098E0,1E0,6E0,1.4142858E1,8E0,2.6E1,6.011893E0,2E1,8.141603E0,4.990467E0,2.3E1,2.3E1,4.5E1,3.3E1,4.2857143E-1,-4.492302E-2,2.3E1,1E0,8E0,1E1,6.3956833E0,-1.6859108E-1,2.1E1,1.3E1,2.5E1,1E1,1.4E1,1E1,1.4E1,1E0,8E0,6E0,3E1,2.5E1,6.9031763E0,2.3E1,6E0,2.8E1,-1.7009746E-1,4.353433E0,3.5E1,5.2E1,5.5818368E-2,3.994043E0,1.0023665E-1,7.676358E-1,3.1593737E-1,-4.3259344E-1,-6.0969688E-2,-4.072817E-1,-1.4176197E-1,-8.12387E-2,-2.6317903E-1,-2.0468202E-1,-3.2204944E-1,-1.8920577E-1,2.0962584E-1,-4.8688418E-1,-4.243803E-3,-1.2861001E-1,-2.8576514E-1,-9.286436E-2,-3.3479968E-1,-1.5869449E-1,-4.9056602E-1,-1.2668112E-1,-2.742902E-1,9.285303E-2,-1.2287092E-1,2.7275953E-1,-1.4764579E-2,-1.0186448E-1,1.85468E-1,8.673821E-2,3.9346594E-1,2.2794281E-1,6.3749604E-2,-1.6380135E-2,1.7724837E-1,2.0390515E-1,1.1568483E-1,-3.2022783E-1,1.9095747E-2,1.9424109E-1,-5.989933E-2,4.9928543E-1,2.1075015E-1,1.2531503E-1,2.0301057E-2,2.3152526E-1,8.217425E-2,3.051958E-1,1.6311742E-1,3.8947105E-1,6.341243E-2,2.691796E-1,4.8771706E-1],"split_indices":[7,7,7,7,7,15,15,6,0,0,15,7,2,7,8,4,10,15,6,7,4,4,8,5,8,8,4,5,5,0,16,0,4,18,14,5,8,0,4,1,1,2,5,2,1,18,4,14,4,0,10,2,13,0,0,8,0,2,0,8,0,0,0,0,0,0,0,0,0,0,0,0,0,0,0,0,0,0,0,0,0,0,0,0,0,0,0,0,0,0,0,0,0,0,0,0,0,0,0,0,0,0,0,0,0,0,0,0,0,0,0,0,0],"split_type":[0,0,0,0,0,0,0,0,0,0,0,0,0,0,0,0,0,0,0,0,0,0,0,0,0,0,0,0,0,0,0,0,0,0,0,0,0,0,0,0,0,0,0,0,0,0,0,0,0,0,0,0,0,0,0,0,0,0,0,0,0,0,0,0,0,0,0,0,0,0,0,0,0,0,0,0,0,0,0,0,0,0,0,0,0,0,0,0,0,0,0,0,0,0,0,0,0,0,0,0,0,0,0,0,0,0,0,0,0,0,0,0,0],"sum_hessian":[1.383E3,6.81E2,7.02E2,3.25E2,3.56E2,3.2E2,3.82E2,1.56E2,1.69E2,1.89E2,1.67E2,2.92E2,2.8E1,3.35E2,4.7E1,1.17E2,3.9E1,1.36E2,3.3E1,1.18E2,7.1E1,1.44E2,2.3E1,1.09E2,1.83E2,2.3E1,5E0,2.35E2,1E2,1.9E1,2.8E1,1E0,1.16E2,2.8E1,1.1E1,1.23E2,1.3E1,4E0,2.9E1,4E1,7.8E1,7E0,6.4E1,1.25E2,1.9E1,1.7E1,6E0,3.3E1,7.6E1,1.72E2,1.1E1,5E0,1.8E1,4E0,1E0,3.1E1,2.04E2,9.9E1,1E0,1.7E1,2E0,2.5E1,3E0,1.15E2,1E0,2.4E1,4E0,7E0,4E0,4E1,8.3E1,1E1,3E0,2.8E1,1E0,1.7E1,2.3E1,7.1E1,7E0,2E0,5E0,2.3E1,4.1E1,6E0,1.19E2,3E0,1.6E1,1.3E1,4E0,1E0,5E0,1.1E1,2.2E1,6.7E1,9E0,7.7E1,9.5E1,2E0,9E0,4E0,1E0,1.5E1,3E0,3E0,1E0,1.7E1,1.4E1,1.81E2,2.3E1,9.8E1,1E0,6E0,1.1E1],"tree_param":{"num_deleted":"0","num_feature":"20","num_nodes":"113","size_leaf_vector":"1"}},{"base_weights":[8.6537994E-2,-4.6365438E0,4.3032293E0,-6.682701E0,-2.8819876E0,2.117712E0,6.4073343E0,-7.534614E0,-5.953279E0,-3.8057907E0,-1.3231062E0,1.787731E0,5.3633485E0,5.7244687E0,1.12878065E1,-5.5090637E0,-8.130091E0,-4.458985E0,-6.7852345E0,-2.7939594E0,-4.5910916E0,5.5294776E0,-1.5764893E0,5.8645487E-1,2.721057E0,3.630913E0,1.0323345E1,4.543793E0,6.750992E0,7.901823E0,1.4183016E1,-3.0772448E-1,-6.002493E0,-6.9232817E0,-9.137961E0,-2.3450067E0,-5.128743E0,-5.700661E0,-8.502305E0,-4.1265903E0,-9.3148184E-1,1.1128372E0,-4.7904963E0,3.800833E-1,-6.8981886E-2,-8.966602E-1,-3.812698E0,1.1392655E0,-1.2680765E0,2.9386444E0,-1.402347E0,4.0415015E0,-1.6584502E-1,5.592851E-1,1.07171394E-1,5.8740883E0,3.637313E0,6.2159657E0,7.896997E0,8.1943865E0,3.6635876E-2,1.4574531E1,1.3924228E-1,2.094984E-2,-6.219721E-2,-3.1524965E-1,7.681265E-2,-1.18940294E-1,-3.5788766E-1,-2.860067E-1,-4.7668576E-1,8.616906E-2,-1.5011752E-1,-2.7661893E-1,-3.158661E-2,-2.4261205E-1,-4.1874653E-1,1.24811076E-1,-4.4287148E-1,7.854327E-2,-2.3468624E-1,4.285449E-2,-1.1267685E-1,1.1117699E-1,-8.324933E-2,-2.2710092E-1,-5.4304236E-1,-8.142828E-2,8.2813054E-2,-4.78764E-2,-2.7076474E-1,-2.2344446E-2,9.744378E-2,-1.0183892E-2,-1.2263975E-1,1.3617316E-1,3.5719582E-1,3.3843067E-2,-2.3451875E-1,2.8858876E-1,6.57314E-2,3.581868E-1,1.6879138E-1,1.9485798E-1,3.4622226E-2,3.287369E-1,1.691666E-1,4.405844E-1,2.5266573E-1,2.526147E-1,4.6619383E-1,3.5657498E-1,7.687202E-1],"categories":[],"categories_nodes":[],"categories_segments":[],"categories_sizes":[],"default_left":[0,0,0,0,0,0,0,0,0,0,0,0,0,0,0,0,0,0,0,0,0,0,0,0,0,0,0,0,0,0,0,0,0,0,0,0,0,0,0,0,0,0,0,0,0,0,0,0,0,0,0,0,0,0,0,0,0,0,0,0,0,0,0,0,0,0,0,0,0,0,0,0,0,0,0,0,0,0,0,0,0,0,0,0,0,0,0,0,0,0,0,0,0,0,0,0,0,0,0,0,0,0,0,0,0,0,0,0,0,0,0,0,0],"id":8,"left_children":[1,3,5,7,9,11,13,15,17,19,21,23,25,27,29,31,33,35,37,39,41,43,45,47,49,51,53,55,57,59,61,63,65,67,69,71,73,75,77,79,81,83,85,-1,-1,87,89,91,93,95,97,99,-1,-1,-1,101,103,105,107,109,-1,111,-1,-1,-1,-1,-1,-1,-1,-1,-1,-1,-1,-1,-1,-1,-1,-1,-1,-1,-1,-1,-1,-1,-1,-1,-1,-1,-1,-1,-1,-1,-1,-1,-1,-1,-1,-1,-1,-1,-1,-1,-1,-1,-1,-1,-1,-1,-1,-1,-1,-1,-1],"loss_changes":[2.7782549E4,2.3430244E3,3.3755684E3,1.4342969E2,5.0764014E2,3.7918408E2,1.1851475E3,1.1924902E2,1.786001E2,1.643667E2,2.413853E2,3.6951538E2,2.4608167E2,3.7049414E2,3.2906885E2,8.5413574E1,6.2015137E1,7.7171875E1,1.4893408E2,2.4435565E2,1.4636743E2,8.2072464E1,1.9421246E2,1.5112457E2,1.7100049E2,8.757526E1,3.2456238E1,1.6795801E2,5.8211914E1,4.223633E1,6.205127E1,3.2426918E0,8.0380615E1,3.7315918E1,1.7154297E1,5.0637787E1,8.181714E1,1.1364819E2,1.7443823E2,1.9478418E2,1.0360887E2,1.9128845E1,1.3167139E2,0E0,0E0,1.9141553E2,1.320853E2,1.4598178E2,4.237486E1,1.4071033E2,7.153968E1,1.10368195E2,0E0,0E0,0E0,1.7557275E2,7.0762085E1,1.0377295E2,9.072827E1,3.0970215E1,0E0,2.1333984E1,0E0,0E0,0E0,0E0,0E0,0E0,0E0,0E0,0E0,0E0,0E0,0E0,0E0,0E0,0E0,0E0,0E0,0E0,0E0,0E0,0E0,0E0,0E0,0E0,0E0,0E0,0E0,0E0,0E0,0E0,0E0,0E0,0E0,0E0,0E0,0E0,0E0,0E0,0E0,0E0,0E0,0E0,0E0,0E0,0E0,0E0,0E0,0E0,0E0,0E0,0E0],"parents":[2147483647,0,0,1,1,2,2,3,3,4,4,5,5,6,6,7,7,8,8,9,9,10,10,11,11,12,12,13,13,14,14,15,15,16,16,17,17,18,18,19,19,20,20,21,21,22,22,23,23,24,24,25,25,26,26,27,27,28,28,29,29,30,30,31,31,32,32,33,33,34,34,35,35,36,36,37,37,38,38,39,39,40,40,41,41,42,42,45,45,46,46,47,47,48,48,49,49,50,50,51,51,55,55,56,56,57,57,58,58,59,59,61,61],"right_children":[2,4,6,8,10,12,14,16,18,20,22,24,26,28,30,32,34,36,38,40,42,44,46,48,50,52,54,56,58,60,62,64,66,68,70,72,74,76,78,80,82,84,86,-1,-1,88,90,92,94,96,98,100,-1,-1,-1,102,104,106,108,110,-1,112,-1,-1,-1,-1,-1,-1,-1,-1,-1,-1,-1,-1,-1,-1,-1,-1,-1,-1,-1,-1,-1,-1,-1,-1,-1,-1,-1,-1,-1,-1,-1,-1,-1,-1,-1,-1,-1,-1,-1,-1,-1,-1,-1,-1,-1,-1,-1,-1,-1,-1,-1],"split_conditions":[1.9857143E1,1.2714286E1,2.7E1,1.0142858E1,1.6571428E1,1E0,1E0,6E0,1E1,1.4E1,8E0,2.4071428E1,6.5283265E0,2.9142857E1,5.6987886E0,5E0,9E0,2E0,1.3E1,1.4428572E1,5E0,2.1E1,2.2E1,5.7940855E0,8.141603E0,6.4291005E0,2.3E1,2.7E1,3.2E1,3.8E1,4.4E1,1.3E1,4.2857143E-1,2E0,4E0,2E0,1.3642858E1,1.7E1,1E0,1.3E1,1.5E1,2.3E1,8.423324E0,3.800833E-1,-6.8981886E-2,1.9E1,5.304984E0,2.1E1,2.3E1,7.4033456E0,2.8E1,1E0,-1.6584502E-1,5.592851E-1,1.07171394E-1,7.8571427E-1,3.7E1,6.7541876E0,3.4E1,3.994043E0,3.6635876E-2,2.6357143E1,1.3924228E-1,2.094984E-2,-6.219721E-2,-3.1524965E-1,7.681265E-2,-1.18940294E-1,-3.5788766E-1,-2.860067E-1,-4.7668576E-1,8.616906E-2,-1.5011752E-1,-2.7661893E-1,-3.158661E-2,-2.4261205E-1,-4.1874653E-1,1.24811076E-1,-4.4287148E-1,7.854327E-2,-2.3468624E-1,4.285449E-2,-1.1267685E-1,1.1117699E-1,-8.324933E-2,-2.2710092E-1,-5.4304236E-1,-8.142828E-2,8.2813054E-2,-4.78764E-2,-2.7076474E-1,-2.2344446E-2,9.744378E-2,-1.0183892E-2,-1.2263975E-1,1.3617316E-1,3.5719582E-1,3.3843067E-2,-2.3451875E-1,2.8858876E-1,6.57314E-2,3.581868E-1,1.6879138E-1,1.9485798E-1,3.4622226E-2,3.287369E-1,1.691666E-1,4.405844E-1,2.5266573E-1,2.526147E-1,4.6619383E-1,3.5657498E-1,7.687202E-1],"split_indices":[7,7,7,7,7,15,15,3,0,0,3,9,8,7,8,2,1,13,3,7,3,1,0,8,8,8,0,1,7,3,3,1,11,0,0,0,9,1,5,7,3,0,8,0,0,7,8,0,5,8,3,17,0,0,0,11,1,8,5,8,0,9,0,0,0,0,0,0,0,0,0,0,0,0,0,0,0,0,0,0,0,0,0,0,0,0,0,0,0,0,0,0,0,0,0,0,0,0,0,0,0,0,0,0,0,0,0,0,0,0,0,0,0],"split_type":[0,0,0,0,0,0,0,0,0,0,0,0,0,0,0,0,0,0,0,0,0,0,0,0,0,0,0,0,0,0,0,0,0,0,0,0,0,0,0,0,0,0,0,0,0,0,0,0,0,0,0,0,0,0,0,0,0,0,0,0,0,0,0,0,0,0,0,0,0,0,0,0,0,0,0,0,0,0,0,0,0,0,0,0,0,0,0,0,0,0,0,0,0,0,0,0,0,0,0,0,0,0,0,0,0,0,0,0,0,0,0,0,0],"sum_hessian":[1.393E3,6.57E2,7.36E2,3.02E2,3.55E2,3.62E2,3.74E2,1.35E2,1.67E2,2.22E2,1.33E2,3.3E2,3.2E1,3.3E2,4.4E1,3.3E1,1.02E2,6.2E1,1.05E2,9.9E1,1.23E2,4E0,1.29E2,1.45E2,1.85E2,2.5E1,7E0,1.56E2,1.74E2,2.2E1,2.2E1,3E0,3E1,5E1,5.2E1,1.6E1,4.6E1,6.7E1,3.8E1,5.7E1,4.2E1,4E0,1.19E2,3E0,1E0,1E2,2.9E1,1.12E2,3.3E1,1.76E2,9E0,2.4E1,1E0,6E0,1E0,6.1E1,9.5E1,1.23E2,5.1E1,2.1E1,1E0,2.1E1,1E0,2E0,1E0,2.9E1,1E0,3E0,4.7E1,7E0,4.5E1,2E0,1.4E1,4.2E1,4E0,5.3E1,1.4E1,1E0,3.7E1,5E0,5.2E1,1.8E1,2.4E1,3E0,1E0,1.16E2,3E0,7.8E1,2.2E1,1.1E1,1.8E1,3.8E1,7.4E1,1.8E1,1.5E1,1.69E2,7E0,6E0,3E0,1.4E1,1E1,3.9E1,2.2E1,8.7E1,8E0,1.08E2,1.5E1,3.7E1,1.4E1,7E0,1.4E1,3E0,1.8E1],"tree_param":{"num_deleted":"0","num_feature":"20","num_nodes":"113","size_leaf_vector":"1"}},{"base_weights":[5.3425215E-2,-4.437835E0,4.3273935E0,-5.856876E0,-1.8934106E0,2.0440822E0,5.973307E0,-7.265111E0,-4.992256E0,-2.2502146E0,7.925442E-1,3.2262702E0,1.4244647E0,5.268428E0,1.14058695E1,-7.8228173E0,-5.8307037E0,-4.5141845E0,-6.8554516E0,-1.0356305E0,-3.3159032E0,1.4328684E0,-4.2841336E-1,2.4764688E0,4.8394837E0,1.6493897E0,-1.8686649E0,4.32912E0,6.241845E0,2.415628E-1,1.246205E1,-1.4561284E-1,-7.9763036E0,-2.3325157E0,-6.781955E0,-4.1588655E0,-7.1982546E0,-3.102573E0,-7.8781824E0,-1.6459059E0,1.1055604E0,-4.5626945E0,-2.5702271E0,-6.8938446E-1,5.321862E0,3.4781456E0,1.0717844E0,5.8981028E0,1.0586908E0,1.4452434E0,5.9599543E0,-2.791229E0,9.04912E-1,5.556727E0,3.4081192E0,6.417173E0,1.7578237E0,1.2647092E1,1.3576122E-1,-3.5089472E-1,-4.4282746E-1,-1.5828155E-1,6.2561273E-3,2.2783613E-2,-3.494941E-1,-2.1907242E-1,1.8740425E-2,-3.735176E-1,-2.3500253E-2,-1.987907E-2,-2.6821697E-1,-4.2564416E-1,-8.028825E-2,-8.485392E-3,-1.2978742E-1,1.17413834E-1,-7.5903356E-2,-8.285224E-2,-2.6084405E-1,-1.8525703E-2,-1.5663652E-1,-9.838837E-2,1.6418205E-1,3.0534378E-1,7.272692E-2,2.0758954E-1,8.539247E-2,1.8743436E-1,1.3969011E-2,1.8665595E-1,3.5889345E-1,-1.265542E-1,1.8593863E-1,2.251209E-1,5.9780803E-2,3.5198638E-1,-3.9961435E-2,-7.0120975E-2,-2.2619192E-1,7.837636E-2,-2.7073337E-2,2.9269946E-1,8.314445E-2,1.8622206E-1,2.5722696E-2,3.2340252E-1,-5.3257562E-2,1.4994371E-1,-1.1647272E-2,6.69162E-1,3.73756E-1],"categories":[],"categories_nodes":[],"categories_segments":[],"categories_sizes":[],"default_left":[0,0,0,0,0,0,0,0,0,0,0,0,0,0,0,0,0,0,0,0,0,0,0,0,0,0,0,0,0,0,0,0,0,0,0,0,0,0,0,0,0,0,0,0,0,0,0,0,0,0,0,0,0,0,0,0,0,0,0,0,0,0,0,0,0,0,0,0,0,0,0,0,0,0,0,0,0,0,0,0,0,0,0,0,0,0,0,0,0,0,0,0,0,0,0,0,0,0,0,0,0,0,0,0,0,0,0,0,0,0,0],"id":9,"left_children":[1,3,5,7,9,11,13,15,17,19,21,23,25,27,29,31,33,35,37,39,41,43,-1,45,47,49,51,53,55,-1,57,-1,59,61,63,65,67,69,71,73,75,77,79,81,83,85,87,89,91,93,95,97,99,101,103,105,107,109,-1,-1,-1,-1,-1,-1,-1,-1,-1,-1,-1,-1,-1,-1,-1,-1,-1,-1,-1,-1,-1,-1,-1,-1,-1,-1,-1,-1,-1,-1,-1,-1,-1,-1,-1,-1,-1,-1,-1,-1,-1,-1,-1,-1,-1,-1,-1,-1,-1,-1,-1,-1,-1],"loss_changes":[2.633624E4,2.4044297E3,2.6297578E3,4.8607715E2,2.3274817E2,2.1222559E2,1.5022646E3,8.318359E1,2.086626E2,2.7226636E2,1.8610187E2,1.10183716E2,1.4826083E2,3.048838E2,2.5921533E2,6.1939453E1,1.472362E2,1.770166E2,1.789812E2,1.3379799E2,9.332922E1,2.3476476E2,0E0,9.6172E1,1.1783075E2,1.5330383E2,3.579024E1,1.9361987E2,1.2708594E2,0E0,3.6E1,0E0,2.9801758E1,2.4966034E1,6.0371216E1,1.9741138E2,4.0426636E1,7.740201E1,1.4955542E2,1.1032974E2,7.855461E1,6.928967E1,8.91655E1,1.0296335E2,2.1476349E1,4.1803955E1,6.470955E1,3.9700317E1,8.580529E1,1.2969522E2,6.401343E1,1.771833E1,4.682333E0,8.1707275E1,9.877014E1,7.122461E1,2.0463736E1,4.4637695E1,0E0,0E0,0E0,0E0,0E0,0E0,0E0,0E0,0E0,0E0,0E0,0E0,0E0,0E0,0E0,0E0,0E0,0E0,0E0,0E0,0E0,0E0,0E0,0E0,0E0,0E0,0E0,0E0,0E0,0E0,0E0,0E0,0E0,0E0,0E0,0E0,0E0,0E0,0E0,0E0,0E0,0E0,0E0,0E0,0E0,0E0,0E0,0E0,0E0,0E0,0E0,0E0,0E0],"parents":[2147483647,0,0,1,1,2,2,3,3,4,4,5,5,6,6,7,7,8,8,9,9,10,10,11,11,12,12,13,13,14,14,15,15,16,16,17,17,18,18,19,19,20,20,21,21,23,23,24,24,25,25,26,26,27,27,28,28,30,30,32,32,33,33,34,34,35,35,36,36,37,37,38,38,39,39,40,40,41,41,42,42,43,43,44,44,45,45,46,46,47,47,48,48,49,49,50,50,51,51,52,52,53,53,54,54,55,55,56,56,57,57],"right_children":[2,4,6,8,10,12,14,16,18,20,22,24,26,28,30,32,34,36,38,40,42,44,-1,46,48,50,52,54,56,-1,58,-1,60,62,64,66,68,70,72,74,76,78,80,82,84,86,88,90,92,94,96,98,100,102,104,106,108,110,-1,-1,-1,-1,-1,-1,-1,-1,-1,-1,-1,-1,-1,-1,-1,-1,-1,-1,-1,-1,-1,-1,-1,-1,-1,-1,-1,-1,-1,-1,-1,-1,-1,-1,-1,-1,-1,-1,-1,-1,-1,-1,-1,-1,-1,-1,-1,-1,-1,-1,-1,-1,-1],"split_conditions":[2.0857143E1,1.4857142E1,2.6285715E1,1.0714286E1,1E0,2.2E1,1E0,1.4E1,6.0474315E0,1.7E1,2.7E1,2.4E1,7.1190815E0,2.9142857E1,3.994043E0,1E0,6E0,2E1,8E0,6.4512825E0,1.6714285E1,6.011893E0,-4.2841336E-1,2.4E1,2.9E1,7.4033456E0,2.5928572E1,2.7E1,8.783101E0,2.415628E-1,3.8E1,-1.4561284E-1,9E0,6.148945E0,1E0,6.6044717E0,5.982116E0,1.5E1,1.5E1,5.151016E0,2.3E1,1.3E1,1.4E1,2.1E1,2.2E1,2.6E1,1.9E1,2.4928572E1,1.9E1,1.7E1,3.1E1,1E0,2.1E1,6E0,3.7E1,7.6175766E0,3.1E1,4.2857143E-1,1.3576122E-1,-3.5089472E-1,-4.4282746E-1,-1.5828155E-1,6.2561273E-3,2.2783613E-2,-3.494941E-1,-2.1907242E-1,1.8740425E-2,-3.735176E-1,-2.3500253E-2,-1.987907E-2,-2.6821697E-1,-4.2564416E-1,-8.028825E-2,-8.485392E-3,-1.2978742E-1,1.17413834E-1,-7.5903356E-2,-8.285224E-2,-2.6084405E-1,-1.8525703E-2,-1.5663652E-1,-9.838837E-2,1.6418205E-1,3.0534378E-1,7.272692E-2,2.0758954E-1,8.539247E-2,1.8743436E-1,1.3969011E-2,1.8665595E-1,3.5889345E-1,-1.265542E-1,1.8593863E-1,2.251209E-1,5.9780803E-2,3.5198638E-1,-3.9961435E-2,-7.0120975E-2,-2.2619192E-1,7.837636E-2,-2.7073337E-2,2.9269946E-1,8.314445E-2,1.8622206E-1,2.5722696E-2,3.2340252E-1,-5.3257562E-2,1.4994371E-1,-1.1647272E-2,6.69162E-1,3.73756E-1],"split_indices":[7,7,7,7,15,3,15,6,10,0,1,7,10,7,8,3,1,0,0,8,7,8,0,1,1,8,9,1,8,0,3,0,1,8,2,8,10,2,9,10,1,6,1,2,3,0,2,9,3,0,2,17,1,12,1,10,6,16,0,0,0,0,0,0,0,0,0,0,0,0,0,0,0,0,0,0,0,0,0,0,0,0,0,0,0,0,0,0,0,0,0,0,0,0,0,0,0,0,0,0,0,0,0,0,0,0,0,0,0,0,0],"split_type":[0,0,0,0,0,0,0,0,0,0,0,0,0,0,0,0,0,0,0,0,0,0,0,0,0,0,0,0,0,0,0,0,0,0,0,0,0,0,0,0,0,0,0,0,0,0,0,0,0,0,0,0,0,0,0,0,0,0,0,0,0,0,0,0,0,0,0,0,0,0,0,0,0,0,0,0,0,0,0,0,0,0,0,0,0,0,0,0,0,0,0,0,0,0,0,0,0,0,0,0,0,0,0,0,0,0,0,0,0,0,0],"sum_hessian":[1.37E3,6.68E2,7.02E2,4.28E2,2.4E2,2.95E2,4.07E2,1.6E2,2.68E2,2.12E2,2.8E1,1E2,1.95E2,3.62E2,4.5E1,1.12E2,4.8E1,2.16E2,5.2E1,1E2,1.12E2,2.7E1,1E0,7E1,3E1,1.83E2,1.2E1,1.87E2,1.75E2,7E0,3.8E1,4E0,1.08E2,1.1E1,3.7E1,1.93E2,2.3E1,1.2E1,4E1,7.8E1,2.2E1,4E1,7.2E1,1.8E1,9E0,4E1,3E1,2.3E1,7E0,1.76E2,7E0,9E0,3E0,7.8E1,1.09E2,1.68E2,7E0,3.7E1,1E0,5.6E1,5.2E1,8E0,3E0,1E0,3.6E1,1.84E2,9E0,2.2E1,1E0,6E0,6E0,3.6E1,4E0,3.1E1,4.7E1,1.5E1,7E0,8E0,3.2E1,1.5E1,5.7E1,1.4E1,4E0,7E0,2E0,2.8E1,1.2E1,6E0,2.4E1,1E1,1.3E1,3E0,4E0,1.2E1,1.64E2,6E0,1E0,6E0,3E0,2E0,1E0,7.2E1,6E0,9.8E1,1.1E1,1.67E2,1E0,4E0,3E0,3.1E1,6E0],"tree_param":{"num_deleted":"0","num_feature":"20","num_nodes":"111","size_leaf_vector":"1"}},{"base_weights":[8.382293E-2,-4.1310134E0,4.1214476E0,-5.398359E0,-1.6059123E0,2.600548E0,6.260419E0,-6.5038934E0,-4.4410505E0,-1.925482E0,3.4621272E0,2.2423437E0,6.3491583E0,5.4953523E0,1.1310205E1,-7.469614E0,-5.7539973E0,-5.5868416E0,-3.5254333E0,-3.3537614E0,-1.3833817E0,-1.1546221E-1,4.083713E0,7.886633E-1,3.036343E0,7.2164426E0,8.099963E-1,4.4743133E0,5.943097E0,6.829444E0,1.3639423E1,-6.295699E0,-8.848562E0,-4.9920206E0,-7.741056E0,4.8628235E-1,-5.7649903E0,-4.0153766E0,-1.4222535E0,-3.5006213E0,1.2910286E-1,-1.5292112E0,3.4140098E0,6.0316243E0,2.1123154E0,-3.0965302E0,1.0216855E0,1.35113E0,3.6654727E0,1.9574677E0,8.152496E0,2.2775426E0,-1.6319337E-1,4.807884E0,-6.0783225E-1,6.836127E0,5.3505197E0,7.2249017E0,3.2325935E-2,1.1163106E-1,1.40383005E1,-3.353202E-1,-1.048839E-1,-4.4812247E-1,-1.1586852E-1,-2.710315E-1,-6.910385E-2,-4.135998E-1,7.4344636E-3,-4.8396047E-2,1.2122231E-1,-3.2112515E-1,-2.0321682E-1,-1.6825867E-1,-3.4352812E-1,-3.0587554E-1,-1.9240713E-2,-1.0834479E-1,-2.2961767E-1,-8.822591E-2,5.8839824E-2,2.6340961E-2,2.0020513E-1,3.3885893E-1,5.7596397E-2,1.9272804E-2,1.53567E-1,6.941576E-2,-2.4114323E-1,1.5474886E-2,9.367397E-2,1.2463392E-1,-1.5468693E-2,2.5793335E-1,1.5647645E-1,2.526434E-1,-4.2672466E-2,4.2819285E-1,-5.328803E-2,4.9070764E-2,1.8655129E-1,2.000191E-1,3.4045914E-1,-9.661615E-2,6.803831E-2,3.670849E-1,2.0856594E-1,2.967318E-1,1.7471188E-1,2.3646429E-1,4.2527267E-1,7.291093E-1,2.7758345E-1],"categories":[],"categories_nodes":[],"categories_segments":[],"categories_sizes":[],"default_left":[0,0,0,0,0,0,0,0,0,0,0,0,0,0,0,0,0,0,0,0,0,0,0,0,0,0,0,0,0,0,0,0,0,0,0,0,0,0,0,0,0,0,0,0,0,0,0,0,0,0,0,0,0,0,0,0,0,0,0,0,0,0,0,0,0,0,0,0,0,0,0,0,0,0,0,0,0,0,0,0,0,0,0,0,0,0,0,0,0,0,0,0,0,0,0,0,0,0,0,0,0,0,0,0,0,0,0,0,0,0,0,0,0],"id":10,"left_children":[1,3,5,7,9,11,13,15,17,19,21,23,25,27,29,31,33,35,37,39,41,-1,43,45,47,49,51,53,55,57,59,61,63,65,67,69,71,73,75,77,-1,79,81,83,85,87,89,91,93,95,97,99,-1,101,103,105,107,109,-1,-1,111,-1,-1,-1,-1,-1,-1,-1,-1,-1,-1,-1,-1,-1,-1,-1,-1,-1,-1,-1,-1,-1,-1,-1,-1,-1,-1,-1,-1,-1,-1,-1,-1,-1,-1,-1,-1,-1,-1,-1,-1,-1,-1,-1,-1,-1,-1,-1,-1,-1,-1,-1,-1],"loss_changes":[2.379107E4,2.18025E3,2.3064756E3,4.5265918E2,3.7917242E2,5.483833E2,1.0814199E3,1.0837598E2,2.394331E2,1.6337726E2,5.965393E1,4.408263E2,1.6709961E2,9.181494E1,3.0344385E2,8.674365E1,1.4607568E2,1.1965088E2,1.3855066E2,6.047119E1,1.1645737E2,0E0,3.7180695E1,1.27194756E2,2.5798145E2,1.3664502E2,4.3305096E1,1.4362878E2,5.7088867E1,3.200531E1,7.785596E1,7.3863525E1,7.4958496E0,1.333086E2,1.352771E2,1.3620608E1,9.130786E1,1.8665833E2,1.3403514E2,7.4500854E1,0E0,1.00771515E2,6.409111E0,1.4021637E1,1.2064938E1,6.86344E1,7.8282974E1,1.3156378E2,1.2790405E2,5.6517845E1,1.0771997E2,5.7578106E0,0E0,9.8812744E1,1.827378E1,5.9641357E1,9.961865E1,4.51593E0,0E0,0E0,2.5206543E1,0E0,0E0,0E0,0E0,0E0,0E0,0E0,0E0,0E0,0E0,0E0,0E0,0E0,0E0,0E0,0E0,0E0,0E0,0E0,0E0,0E0,0E0,0E0,0E0,0E0,0E0,0E0,0E0,0E0,0E0,0E0,0E0,0E0,0E0,0E0,0E0,0E0,0E0,0E0,0E0,0E0,0E0,0E0,0E0,0E0,0E0,0E0,0E0,0E0,0E0,0E0,0E0],"parents":[2147483647,0,0,1,1,2,2,3,3,4,4,5,5,6,6,7,7,8,8,9,9,10,10,11,11,12,12,13,13,14,14,15,15,16,16,17,17,18,18,19,19,20,20,22,22,23,23,24,24,25,25,26,26,27,27,28,28,29,29,30,30,31,31,32,32,33,33,34,34,35,35,36,36,37,37,38,38,39,39,41,41,42,42,43,43,44,44,45,45,46,46,47,47,48,48,49,49,50,50,51,51,53,53,54,54,55,55,56,56,57,57,60,60],"right_children":[2,4,6,8,10,12,14,16,18,20,22,24,26,28,30,32,34,36,38,40,42,-1,44,46,48,50,52,54,56,58,60,62,64,66,68,70,72,74,76,78,-1,80,82,84,86,88,90,92,94,96,98,100,-1,102,104,106,108,110,-1,-1,112,-1,-1,-1,-1,-1,-1,-1,-1,-1,-1,-1,-1,-1,-1,-1,-1,-1,-1,-1,-1,-1,-1,-1,-1,-1,-1,-1,-1,-1,-1,-1,-1,-1,-1,-1,-1,-1,-1,-1,-1,-1,-1,-1,-1,-1,-1,-1,-1,-1,-1,-1,-1],"split_conditions":[2.0714285E1,1.4785714E1,2.8142857E1,1.1428572E1,2.142857E0,1E0,1E0,-2.857143E-1,-1.4285715E-1,-1.1428572E0,1E1,2.4071428E1,2.9E1,-5E-1,5.429198E0,1E1,5.7940855E0,3E0,1.4E1,4.2857143E-1,7.781706E0,-1.1546221E-1,1E0,-2.142857E0,-9.285714E-1,4.8452234E0,2.6E1,3.7E1,2.9E1,5.3184314E0,2.8357143E1,1.8E1,1.7E1,5.345225E0,7.699722E0,1.1E1,1.3714286E1,6.2410374E0,1E0,5.3807416E0,1.2910286E-1,1E0,1.1E1,2.3E1,2.642857E0,2E1,2.857143E-1,9E0,2.4E1,2.2E1,2.75E1,3.2E1,-1.6319337E-1,3.1571428E1,2.9E1,5E0,5E0,3.994043E0,3.2325935E-2,1.1163106E-1,3.7E1,-3.353202E-1,-1.048839E-1,-4.4812247E-1,-1.1586852E-1,-2.710315E-1,-6.910385E-2,-4.135998E-1,7.4344636E-3,-4.8396047E-2,1.2122231E-1,-3.2112515E-1,-2.0321682E-1,-1.6825867E-1,-3.4352812E-1,-3.0587554E-1,-1.9240713E-2,-1.0834479E-1,-2.2961767E-1,-8.822591E-2,5.8839824E-2,2.6340961E-2,2.0020513E-1,3.3885893E-1,5.7596397E-2,1.9272804E-2,1.53567E-1,6.941576E-2,-2.4114323E-1,1.5474886E-2,9.367397E-2,1.2463392E-1,-1.5468693E-2,2.5793335E-1,1.5647645E-1,2.526434E-1,-4.2672466E-2,4.2819285E-1,-5.328803E-2,4.9070764E-2,1.8655129E-1,2.000191E-1,3.4045914E-1,-9.661615E-2,6.803831E-2,3.670849E-1,2.0856594E-1,2.967318E-1,1.7471188E-1,2.3646429E-1,4.2527267E-1,7.291093E-1,2.7758345E-1],"split_indices":[9,9,9,9,11,15,15,11,11,11,1,9,2,11,8,1,8,5,14,16,10,0,17,11,11,8,5,1,2,8,9,5,1,8,8,6,9,10,13,8,0,15,1,2,11,2,11,14,1,5,9,2,0,9,2,12,13,8,0,0,1,0,0,0,0,0,0,0,0,0,0,0,0,0,0,0,0,0,0,0,0,0,0,0,0,0,0,0,0,0,0,0,0,0,0,0,0,0,0,0,0,0,0,0,0,0,0,0,0,0,0,0,0],"split_type":[0,0,0,0,0,0,0,0,0,0,0,0,0,0,0,0,0,0,0,0,0,0,0,0,0,0,0,0,0,0,0,0,0,0,0,0,0,0,0,0,0,0,0,0,0,0,0,0,0,0,0,0,0,0,0,0,0,0,0,0,0,0,0,0,0,0,0,0,0,0,0,0,0,0,0,0,0,0,0,0,0,0,0,0,0,0,0,0,0,0,0,0,0,0,0,0,0,0,0,0,0,0,0,0,0,0,0,0,0,0,0,0,0],"sum_hessian":[1.396E3,6.83E2,7.13E2,4.54E2,2.29E2,4.18E2,2.95E2,2.08E2,2.46E2,2.16E2,1.3E1,3.83E2,3.5E1,2.58E2,3.7E1,8.7E1,1.21E2,1.07E2,1.39E2,5.8E1,1.58E2,1E0,1.2E1,1.36E2,2.47E2,3E1,5E0,8.2E1,1.76E2,1.4E1,2.3E1,5E1,3.7E1,9E1,3.1E1,3E0,1.04E2,1.12E2,2.7E1,5.7E1,1E0,1.54E2,4E0,5E0,7E0,7E0,1.29E2,6.8E1,1.79E2,5E0,2.5E1,4E0,1E0,7.7E1,5E0,6.6E1,1.1E2,1.3E1,1E0,1E0,2.2E1,4.5E1,5E0,3.6E1,1E0,8E1,1E1,2.9E1,2E0,2E0,1E0,7.3E1,3.1E1,9.3E1,1.9E1,4E0,2.3E1,2.7E1,3E1,1.42E2,1.2E1,1E0,3E0,4E0,1E0,3E0,4E0,2E0,5E0,7.1E1,5.8E1,4E1,2.8E1,4.5E1,1.34E2,2E0,3E0,2.4E1,1E0,3E0,1E0,5.7E1,2E1,3E0,2E0,5.4E1,1.2E1,8.2E1,2.8E1,6E0,7E0,2E1,2E0],"tree_param":{"num_deleted":"0","num_feature":"20","num_nodes":"113","size_leaf_vector":"1"}},{"base_weights":[4.8612233E-2,-4.259113E0,3.5882306E0,-5.461234E0,-2.156469E0,1.619982E0,5.5220447E0,-6.992102E0,-4.9278684E0,-1.0304788E0,-3.2832828E0,8.125185E-1,2.4976323E0,4.571156E0,6.860377E0,-7.8728247E0,-5.08121E0,-3.7318892E0,-5.4561667E0,-2.3163006E0,-1.4667721E-1,3.0510263E0,-3.5960987E0,2.1530364E0,3.8071394E-1,3.9557927E0,1.667916E0,4.7273264E0,6.470661E-1,7.4659195E0,5.14697E0,-1.9304562E-2,-7.978804E0,-2.832605E0,-6.131239E0,-1.9864621E0,-4.4951673E0,-4.8570166E0,-7.4052353E0,-3.7738745E0,-7.014819E-1,-8.829508E-1,2.2440126E0,2.9958272E-1,-9.4340995E-2,-4.8169885E0,-2.3109925E0,8.998745E-1,3.6501043E0,2.357946E-1,2.87812E-1,1.5198909E0,4.9081807E0,4.7500505E0,1.1777039E0,5.0484324E0,3.1400828E0,-1.7243061E0,1.4554474E0,5.572402E0,8.090939E0,2.0597005E0,5.970198E0,-1.3556634E-1,-4.049584E-1,-5.4536488E-2,-2.0849112E-1,-3.3816087E-1,-7.192681E-2,-1.4311567E-1,1.570213E-1,-2.4445115E-1,-5.142933E-2,-2.545284E-1,5.2085597E-2,-3.8724232E-1,7.867145E-3,-1.3360225E-1,-4.4452342E-1,3.2712054E-2,-1.3324592E-1,7.579327E-2,-8.6951554E-2,-1.276002E-2,1.653309E-1,-2.7137572E-1,-2.3769796E-2,-8.581508E-2,-2.6129505E-1,-1.2228751E-2,2.568476E-1,2.957251E-1,8.137413E-2,-1.857026E-1,1.9825103E-2,1.4874361E-1,-2.9448045E-2,8.5093975E-2,2.811391E-1,3.1624317E-1,1.0244179E-3,1.2381414E-1,1.4664546E-2,2.603384E-1,1.6179956E-2,2.168088E-1,7.9493254E-2,-4.8955916E-3,-1.2442737E-1,8.753799E-2,-1.5293456E-2,3.2840377E-1,8.821867E-2,4.1774225E-1,1.09873615E-1,-3.8835716E-2,2.2764161E-1,1.621183E-1,3.542678E-1],"categories":[],"categories_nodes":[],"categories_segments":[],"categories_sizes":[],"default_left":[0,0,0,0,0,0,0,0,0,0,0,0,0,0,0,0,0,0,0,0,0,0,0,0,0,0,0,0,0,0,0,0,0,0,0,0,0,0,0,0,0,0,0,0,0,0,0,0,0,0,0,0,0,0,0,0,0,0,0,0,0,0,0,0,0,0,0,0,0,0,0,0,0,0,0,0,0,0,0,0,0,0,0,0,0,0,0,0,0,0,0,0,0,0,0,0,0,0,0,0,0,0,0,0,0,0,0,0,0,0,0,0,0,0,0,0,0,0,0],"id":11,"left_children":[1,3,5,7,9,11,13,15,17,19,21,23,25,27,29,31,33,35,37,39,41,43,45,47,49,51,53,55,57,59,61,-1,63,65,67,69,71,73,75,77,79,81,83,-1,-1,85,87,89,91,93,-1,95,97,99,101,103,105,107,109,111,113,115,117,-1,-1,-1,-1,-1,-1,-1,-1,-1,-1,-1,-1,-1,-1,-1,-1,-1,-1,-1,-1,-1,-1,-1,-1,-1,-1,-1,-1,-1,-1,-1,-1,-1,-1,-1,-1,-1,-1,-1,-1,-1,-1,-1,-1,-1,-1,-1,-1,-1,-1,-1,-1,-1,-1,-1,-1],"loss_changes":[2.1499295E4,1.5957969E3,2.9370732E3,2.9541602E2,2.9224268E2,2.7080878E2,4.6495605E2,1.3165869E2,1.7108398E2,1.3375677E2,2.4082263E2,1.1610634E2,2.1601624E2,1.3850342E2,1.275791E2,5.0873535E1,6.527112E1,1.18966064E2,2.0693213E2,1.10331116E2,1.2695567E2,9.842738E1,1.6302405E2,8.8642715E1,1.1861141E2,1.4565527E2,1.7420294E2,9.729541E1,2.1679367E1,9.219873E1,1.020719E2,0E0,2.0519531E1,2.5732307E1,5.848169E1,1.48191E2,8.508313E1,2.2848315E2,1.2193042E2,1.1718463E2,6.562852E1,1.1558299E2,4.5990364E1,0E0,0E0,1.458562E2,8.81051E1,1.3703175E2,9.1134705E1,9.7322845E1,0E0,6.311887E1,9.8118286E1,1.1904123E2,1.1871565E2,1.3521875E2,6.727429E1,3.4852142E0,4.6966095E0,1.0974109E2,1.1384277E2,8.132335E1,8.349548E1,0E0,0E0,0E0,0E0,0E0,0E0,0E0,0E0,0E0,0E0,0E0,0E0,0E0,0E0,0E0,0E0,0E0,0E0,0E0,0E0,0E0,0E0,0E0,0E0,0E0,0E0,0E0,0E0,0E0,0E0,0E0,0E0,0E0,0E0,0E0,0E0,0E0,0E0,0E0,0E0,0E0,0E0,0E0,0E0,0E0,0E0,0E0,0E0,0E0,0E0,0E0,0E0,0E0,0E0,0E0,0E0],"parents":[2147483647,0,0,1,1,2,2,3,3,4,4,5,5,6,6,7,7,8,8,9,9,10,10,11,11,12,12,13,13,14,14,15,15,16,16,17,17,18,18,19,19,20,20,21,21,22,22,23,23,24,24,25,25,26,26,27,27,28,28,29,29,30,30,32,32,33,33,34,34,35,35,36,36,37,37,38,38,39,39,40,40,41,41,42,42,45,45,46,46,47,47,48,48,49,49,51,51,52,52,53,53,54,54,55,55,56,56,57,57,58,58,59,59,60,60,61,61,62,62],"right_children":[2,4,6,8,10,12,14,16,18,20,22,24,26,28,30,32,34,36,38,40,42,44,46,48,50,52,54,56,58,60,62,-1,64,66,68,70,72,74,76,78,80,82,84,-1,-1,86,88,90,92,94,-1,96,98,100,102,104,106,108,110,112,114,116,118,-1,-1,-1,-1,-1,-1,-1,-1,-1,-1,-1,-1,-1,-1,-1,-1,-1,-1,-1,-1,-1,-1,-1,-1,-1,-1,-1,-1,-1,-1,-1,-1,-1,-1,-1,-1,-1,-1,-1,-1,-1,-1,-1,-1,-1,-1,-1,-1,-1,-1,-1,-1,-1,-1,-1,-1],"split_conditions":[1.9E1,1.4142858E1,2.6857143E1,9.714286E0,1.7E1,2.4071428E1,3E1,1.3E1,1E1,8E0,7E0,1.9E1,2.4E1,3.7E1,3.5E1,1E0,8E0,9E0,5.8333073E0,1.5714286E1,6.644009E0,2.3E1,1.6571428E1,5.388735E0,3.3E1,2.3E1,2E1,3.3E1,-1.3571428E0,4.353433E0,3.1142857E1,-1.9304562E-2,2E0,8E0,1.1285714E1,6.499084E0,1.4214286E1,6.575568E0,2.3E1,2.2E1,1.7785715E1,1.3E1,3E0,2.9958272E-1,-9.4340995E-2,2.2E1,2.6E1,2.3E1,2E1,-2.142857E0,2.87812E-1,6E0,-1.5714285E0,3E0,4.634241E0,7.7036457E0,4E0,2.2E1,3.6E1,3.3E1,4.4E1,3E0,2.8E1,-1.3556634E-1,-4.049584E-1,-5.4536488E-2,-2.0849112E-1,-3.3816087E-1,-7.192681E-2,-1.4311567E-1,1.570213E-1,-2.4445115E-1,-5.142933E-2,-2.545284E-1,5.2085597E-2,-3.8724232E-1,7.867145E-3,-1.3360225E-1,-4.4452342E-1,3.2712054E-2,-1.3324592E-1,7.579327E-2,-8.6951554E-2,-1.276002E-2,1.653309E-1,-2.7137572E-1,-2.3769796E-2,-8.581508E-2,-2.6129505E-1,-1.2228751E-2,2.568476E-1,2.957251E-1,8.137413E-2,-1.857026E-1,1.9825103E-2,1.4874361E-1,-2.9448045E-2,8.5093975E-2,2.811391E-1,3.1624317E-1,1.0244179E-3,1.2381414E-1,1.4664546E-2,2.603384E-1,1.6179956E-2,2.168088E-1,7.9493254E-2,-4.8955916E-3,-1.2442737E-1,8.753799E-2,-1.5293456E-2,3.2840377E-1,8.821867E-2,4.1774225E-1,1.09873615E-1,-3.8835716E-2,2.2764161E-1,1.621183E-1,3.542678E-1],"split_indices":[7,7,7,7,0,9,7,6,0,14,3,1,3,1,0,4,1,6,10,7,8,0,9,10,4,6,6,3,11,8,7,0,3,14,9,8,9,8,4,1,9,4,13,0,0,3,0,7,0,11,0,12,11,12,8,10,12,0,0,1,3,13,4,0,0,0,0,0,0,0,0,0,0,0,0,0,0,0,0,0,0,0,0,0,0,0,0,0,0,0,0,0,0,0,0,0,0,0,0,0,0,0,0,0,0,0,0,0,0,0,0,0,0,0,0,0,0,0,0],"split_type":[0,0,0,0,0,0,0,0,0,0,0,0,0,0,0,0,0,0,0,0,0,0,0,0,0,0,0,0,0,0,0,0,0,0,0,0,0,0,0,0,0,0,0,0,0,0,0,0,0,0,0,0,0,0,0,0,0,0,0,0,0,0,0,0,0,0,0,0,0,0,0,0,0,0,0,0,0,0,0,0,0,0,0,0,0,0,0,0,0,0,0,0,0,0,0,0,0,0,0,0,0,0,0,0,0,0,0,0,0,0,0,0,0,0,0,0,0,0,0],"sum_hessian":[1.408E3,6.35E2,7.73E2,4.03E2,2.32E2,3.84E2,3.89E2,1.01E2,3.02E2,1.17E2,1.15E2,2.01E2,1.83E2,2.3E2,1.59E2,6.7E1,3.4E1,9.5E1,2.07E2,4.7E1,7E1,5E0,1.1E2,4.8E1,1.53E2,6.5E1,1.18E2,2.21E2,9E0,1.15E2,4.4E1,1E0,6.6E1,1.2E1,2.2E1,3E1,6.5E1,1.61E2,4.6E1,2.4E1,2.3E1,5.4E1,1.6E1,3E0,2E0,5.5E1,5.5E1,2.7E1,2.1E1,1.5E2,3E0,1.9E1,4.6E1,1.5E1,1.03E2,1.82E2,3.9E1,2E0,7E0,3.1E1,8.4E1,1E1,3.4E1,2E0,6.4E1,6E0,6E0,1.9E1,3E0,2.6E1,4E0,5.8E1,7E0,1.55E2,6E0,4.4E1,2E0,2.1E1,3E0,1.4E1,9E0,1.4E1,4E1,5E0,1.1E1,4.8E1,7E0,4.7E1,8E0,2.2E1,5E0,9E0,1.2E1,5E0,1.45E2,1.1E1,8E0,9E0,3.7E1,1.1E1,4E0,4.1E1,6.2E1,1.76E2,6E0,2.1E1,1.8E1,1E0,1E0,6E0,1E0,2.4E1,7E0,8E1,4E0,5E0,5E0,1.1E1,2.3E1],"tree_param":{"num_deleted":"0","num_feature":"20","num_nodes":"119","size_leaf_vector":"1"}},{"base_weights":[7.919374E-2,-3.7369196E0,3.667922E0,-5.2050414E0,-1.7013359E0,2.0117996E0,5.4419966E0,-7.6463456E0,-4.868351E0,-1.1838996E0,-3.6306143E0,1.0849464E0,2.652752E0,4.818991E0,9.748919E0,-7.9832935E0,-1.0562851E-1,-4.351613E0,-5.770887E0,-1.554052E0,2.3358853E0,-2.6613264E0,-8.210921E0,7.037875E-1,4.1376605E0,7.356813E0,2.487258E0,4.4595733E0,6.6579566E0,6.223422E0,1.1607604E1,-3.4966645E-1,-9.957926E0,-4.47218E0,8.145358E-1,-5.953432E0,-2.3563194E-1,-2.0904465E0,4.1150233E-1,4.9236445E0,1.0577478E0,-3.0304902E0,1.3410778E0,-9.845673E-2,-4.762613E-1,1.6316473E0,-8.799711E-1,3.066909E-1,2.4912274E0,4.0102598E-1,8.436437E-2,3.284858E0,1.7244217E0,6.327831E0,3.9935138E0,4.2982893E0,7.4115963E0,1.0148741E-1,3.323631E-1,1.2119192E1,1.7375822E-1,-5.180452E-1,-1.3812912E-1,-1.9839795E-1,-2.9977986E-1,1.1693771E-1,-1.7016391E-1,-3.0625182E-1,-8.36057E-2,9.6037485E-2,-2.2152896E-1,-2.4616996E-2,-1.3228403E-1,6.5656416E-2,-1.0886983E-1,1.15533374E-1,3.818696E-1,-1.4299494E-1,9.108451E-2,-1.7846791E-1,-1.793371E-2,1.5287118E-1,-4.111468E-2,6.1203975E-2,2.3441343E-1,-3.3756613E-3,-1.6560757E-1,-3.4831237E-2,1.6385208E-1,2.0106709E-1,7.1041845E-2,1.4677878E-1,4.0175084E-2,1.4939396E-1,3.544061E-1,2.0898746E-1,2.8615905E-2,1.249547E-2,2.2952397E-1,4.0151405E-1,1.5414521E-1,6.444969E-1,2.4251448E-1],"categories":[],"categories_nodes":[],"categories_segments":[],"categories_sizes":[],"default_left":[0,0,0,0,0,0,0,0,0,0,0,0,0,0,0,0,0,0,0,0,0,0,0,0,0,0,0,0,0,0,0,0,0,0,0,0,0,0,0,0,0,0,0,0,0,0,0,0,0,0,0,0,0,0,0,0,0,0,0,0,0,0,0,0,0,0,0,0,0,0,0,0,0,0,0,0,0,0,0,0,0,0,0,0,0,0,0,0,0,0,0,0,0,0,0,0,0,0,0,0,0,0,0],"id":12,"left_children":[1,3,5,7,9,11,13,15,17,19,21,23,25,27,29,31,-1,33,35,37,39,41,43,45,47,49,51,53,55,57,59,-1,61,63,65,67,69,71,73,75,77,79,81,-1,-1,83,85,-1,87,-1,-1,89,91,93,95,97,99,-1,-1,101,-1,-1,-1,-1,-1,-1,-1,-1,-1,-1,-1,-1,-1,-1,-1,-1,-1,-1,-1,-1,-1,-1,-1,-1,-1,-1,-1,-1,-1,-1,-1,-1,-1,-1,-1,-1,-1,-1,-1,-1,-1,-1,-1],"loss_changes":[1.91867E4,2.0203262E3,2.1103496E3,2.866289E2,2.8120935E2,2.1989758E2,8.8678516E2,6.8906006E1,1.3765234E2,2.993785E2,2.4452625E2,1.7744121E2,1.537489E2,1.7256055E2,2.09531E2,1.4417969E1,0E0,1.4441064E2,1.2389111E2,2.1804855E2,6.7557304E1,7.941879E1,6.3279602E1,2.0569713E2,4.0590454E1,1.2807404E1,1.2514966E2,2.0024658E2,5.3503174E1,1.6724243E1,7.021631E1,0E0,6.171875E0,1.4596826E2,4.6532654E1,7.792139E1,5.373957E1,1.4244391E2,1.0789904E2,3.1989258E1,5.3095547E1,6.6388336E1,2.1079561E1,0E0,0E0,1.0388988E2,1.02530685E2,0E0,2.9838524E1,0E0,0E0,1.3705981E2,1.22563354E2,1.0578833E2,1.3140869E2,1.541333E1,6.897681E1,0E0,0E0,7.754224E1,0E0,0E0,0E0,0E0,0E0,0E0,0E0,0E0,0E0,0E0,0E0,0E0,0E0,0E0,0E0,0E0,0E0,0E0,0E0,0E0,0E0,0E0,0E0,0E0,0E0,0E0,0E0,0E0,0E0,0E0,0E0,0E0,0E0,0E0,0E0,0E0,0E0,0E0,0E0,0E0,0E0,0E0,0E0],"parents":[2147483647,0,0,1,1,2,2,3,3,4,4,5,5,6,6,7,7,8,8,9,9,10,10,11,11,12,12,13,13,14,14,15,15,17,17,18,18,19,19,20,20,21,21,22,22,23,23,24,24,25,25,26,26,27,27,28,28,29,29,30,30,32,32,33,33,34,34,35,35,36,36,37,37,38,38,39,39,40,40,41,41,42,42,45,45,46,46,48,48,51,51,52,52,53,53,54,54,55,55,56,56,59,59],"right_children":[2,4,6,8,10,12,14,16,18,20,22,24,26,28,30,32,-1,34,36,38,40,42,44,46,48,50,52,54,56,58,60,-1,62,64,66,68,70,72,74,76,78,80,82,-1,-1,84,86,-1,88,-1,-1,90,92,94,96,98,100,-1,-1,102,-1,-1,-1,-1,-1,-1,-1,-1,-1,-1,-1,-1,-1,-1,-1,-1,-1,-1,-1,-1,-1,-1,-1,-1,-1,-1,-1,-1,-1,-1,-1,-1,-1,-1,-1,-1,-1,-1,-1,-1,-1,-1,-1],"split_conditions":[2.0857143E1,1.4142858E1,2.7285715E1,8.571428E0,2.2E1,2.4071428E1,1E0,5.407226E0,1.4E1,7.0203786E0,7.273566E0,1E0,1.7E1,3.2E1,5.02849E0,1.1E1,-1.0562851E-1,7.699722E0,1.2E1,1.8571428E1,8E0,6.834383E0,1.1E1,5.2734737E0,2E1,2.7E1,2.5E1,2.5E1,2.8E1,3.6891584E0,3.8E1,-3.4966645E-1,2E1,5.6359324E0,8.423324E0,2.4E1,1.3E1,1.4E1,2.0214285E1,1.5428572E1,1.4428572E1,2.0142857E1,2.6E1,-9.845673E-2,-4.762613E-1,5.02849E0,5.8914165E0,3.066909E-1,2.3E1,4.0102598E-1,8.436437E-2,2.9E1,4.466809E0,2.4E1,6.619983E0,4.462912E0,8.303757E0,1.0148741E-1,3.323631E-1,3.6E1,1.7375822E-1,-5.180452E-1,-1.3812912E-1,-1.9839795E-1,-2.9977986E-1,1.1693771E-1,-1.7016391E-1,-3.0625182E-1,-8.36057E-2,9.6037485E-2,-2.2152896E-1,-2.4616996E-2,-1.3228403E-1,6.5656416E-2,-1.0886983E-1,1.15533374E-1,3.818696E-1,-1.4299494E-1,9.108451E-2,-1.7846791E-1,-1.793371E-2,1.5287118E-1,-4.111468E-2,6.1203975E-2,2.3441343E-1,-3.3756613E-3,-1.6560757E-1,-3.4831237E-2,1.6385208E-1,2.0106709E-1,7.1041845E-2,1.4677878E-1,4.0175084E-2,1.4939396E-1,3.544061E-1,2.0898746E-1,2.8615905E-2,1.249547E-2,2.2952397E-1,4.0151405E-1,1.5414521E-1,6.444969E-1,2.4251448E-1],"split_indices":[7,7,7,7,0,9,15,8,1,8,8,15,0,7,8,1,0,8,12,7,3,10,1,8,5,1,3,1,4,10,3,0,4,10,8,5,3,3,9,7,7,7,0,0,0,8,10,0,5,0,0,1,8,4,10,10,8,0,0,1,0,0,0,0,0,0,0,0,0,0,0,0,0,0,0,0,0,0,0,0,0,0,0,0,0,0,0,0,0,0,0,0,0,0,0,0,0,0,0,0,0,0,0],"split_type":[0,0,0,0,0,0,0,0,0,0,0,0,0,0,0,0,0,0,0,0,0,0,0,0,0,0,0,0,0,0,0,0,0,0,0,0,0,0,0,0,0,0,0,0,0,0,0,0,0,0,0,0,0,0,0,0,0,0,0,0,0,0,0,0,0,0,0,0,0,0,0,0,0,0,0,0,0,0,0,0,0,0,0,0,0,0,0,0,0,0,0,0,0,0,0,0,0,0,0,0,0,0,0],"sum_hessian":[1.399E3,6.78E2,7.21E2,3.93E2,2.85E2,3.74E2,3.47E2,4.5E1,3.48E2,2.26E2,5.9E1,1.54E2,2.2E2,3.05E2,4.2E1,4.2E1,3E0,2.25E2,1.23E2,2.05E2,2.1E1,5E1,9E0,1.38E2,1.6E1,6E0,2.14E2,2.58E2,4.7E1,1.6E1,2.6E1,3.1E1,1.1E1,2.2E2,5E0,1.19E2,4E0,1.61E2,4.4E1,6E0,1.5E1,4.6E1,4E0,2E0,7E0,8.7E1,5.1E1,6E0,1E1,5E0,1E0,1.03E2,1.11E2,4.9E1,2.09E2,1.3E1,3.4E1,2E0,1.4E1,2.4E1,2E0,1E1,1E0,1.68E2,5.2E1,4E0,1E0,1.14E2,5E0,3E0,1E0,4.2E1,1.19E2,3.3E1,1.1E1,4E0,2E0,2E0,1.3E1,3.8E1,8E0,2E0,2E0,7.8E1,9E0,3.9E1,1.2E1,2E0,8E0,7.3E1,3E1,4.7E1,6.4E1,1E1,3.9E1,1.98E2,1.1E1,1E0,1.2E1,2.9E1,5E0,2.1E1,3E0],"tree_param":{"num_deleted":"0","num_feature":"20","num_nodes":"103","size_leaf_vector":"1"}},{"base_weights":[-7.293796E-2,-3.777285E0,3.485835E0,-5.2819457E0,-2.1660728E0,1.682482E0,5.0218177E0,-6.035108E0,-4.1854386E0,-3.1224313E0,-1.0403957E0,1.3415213E0,5.163403E0,4.4215255E0,9.33654E0,-5.4623785E0,-7.518609E0,-3.1038187E0,-5.0049686E0,-2.4882874E0,-4.470849E0,-4.5345134E-1,-2.216902E0,1.8823321E0,4.9858105E-1,6.4941874E0,8.583214E-1,3.311339E0,4.940343E0,9.59503E0,-5.738702E-2,-7.041515E0,-4.9343166E0,-7.8578644E0,-1.2286341E0,-1.2303652E0,-3.7286828E0,-1.2085646E0,-5.6385155E0,-3.5418377E0,-1.678198E0,-5.322213E0,-1.7889743E0,-1.3142737E0,7.9827976E-1,-1.217125E0,-3.9822083E0,2.8476403E0,1.0878457E0,-3.8974795E-1,1.6121558E0,8.697024E0,2.9810796E0,2.6417916E0,-1.4973632E-1,3.7515845E0,9.821716E-1,7.1888633E0,4.616942E0,5.9079432E0,1.0614148E1,-2.6778135E-1,-4.5223585E-1,-1.4191817E-1,-2.6665497E-1,-3.9924747E-1,-3.4413863E-2,-1.2456035E-1,6.39771E-2,-1.0668453E-1,1.9987462E-1,-2.1889488E-1,-6.810557E-2,-1.0223674E-1,1.1301235E-1,-2.2126599E-1,-4.2251202E-1,-8.729144E-2,-2.4302916E-1,-1.793554E-2,-1.5314178E-1,-1.1250316E-1,-3.3889642E-1,-2.4202266E-1,-1.1965223E-2,4.095852E-2,-9.485036E-2,-4.975575E-2,1.12975694E-1,-1.2320459E-1,2.6331935E-2,-2.7597448E-1,-9.158253E-2,1.8507773E-1,9.731282E-2,1.7053789E-1,2.5750061E-2,-3.9842676E-2,6.813013E-2,9.806093E-2,-1.0655447E-1,2.0392263E-1,4.8373756E-1,-3.0397821E-2,2.3030446E-1,4.7495246E-2,2.0085219E-1,3.5475639E-1,1.6316323E-1,1.3812916E-1,-6.515085E-2,5.7315033E-2,3.813208E-1,2.0271292E-1,2.8617537E-1,8.765469E-2,3.281802E-1,5.4038084E-1,1.0574255E-1],"categories":[],"categories_nodes":[],"categories_segments":[],"categories_sizes":[],"default_left":[0,0,0,0,0,0,0,0,0,0,0,0,0,0,0,0,0,0,0,0,0,0,0,0,0,0,0,0,0,0,0,0,0,0,0,0,0,0,0,0,0,0,0,0,0,0,0,0,0,0,0,0,0,0,0,0,0,0,0,0,0,0,0,0,0,0,0,0,0,0,0,0,0,0,0,0,0,0,0,0,0,0,0,0,0,0,0,0,0,0,0,0,0,0,0,0,0,0,0,0,0,0,0,0,0,0,0,0,0,0,0,0,0,0,0,0,0,0,0],"id":13,"left_children":[1,3,5,7,9,11,13,15,17,19,21,23,25,27,29,31,33,35,37,39,41,43,45,47,49,51,53,55,57,59,-1,61,63,65,67,69,71,73,75,77,79,81,83,85,87,89,91,93,95,97,99,101,103,105,-1,107,109,111,113,115,117,-1,-1,-1,-1,-1,-1,-1,-1,-1,-1,-1,-1,-1,-1,-1,-1,-1,-1,-1,-1,-1,-1,-1,-1,-1,-1,-1,-1,-1,-1,-1,-1,-1,-1,-1,-1,-1,-1,-1,-1,-1,-1,-1,-1,-1,-1,-1,-1,-1,-1,-1,-1,-1,-1,-1,-1,-1,-1],"loss_changes":[1.8403355E4,1.6467998E3,1.9637324E3,2.6626465E2,3.5416638E2,3.8354938E2,9.533154E2,1.3480664E2,1.1476904E2,1.419364E2,1.053385E2,1.3627869E2,1.6057074E2,1.7889941E2,1.3567603E2,9.283887E1,1.07710205E2,7.267554E1,1.9041187E2,9.988635E1,1.1834082E2,1.13111046E2,8.516368E1,1.3724939E2,1.18345604E2,1.4432727E2,6.2885807E1,1.10135376E2,1.3333252E2,1.063833E2,0E0,7.313818E1,8.349072E1,4.188379E1,1.5854623E1,9.3533646E1,6.9321045E1,4.2328316E1,2.013872E2,1.1704358E2,1.3044615E2,1.7258069E2,6.977343E1,7.86342E1,1.1493297E2,7.52278E1,4.9398438E1,5.591162E1,1.339715E2,4.8883038E1,7.3430786E1,1.9246094E1,6.112245E1,1.014481E1,0E0,1.2868945E2,8.0902626E1,6.264441E1,1.0319287E2,2.1183441E1,3.3051025E1,0E0,0E0,0E0,0E0,0E0,0E0,0E0,0E0,0E0,0E0,0E0,0E0,0E0,0E0,0E0,0E0,0E0,0E0,0E0,0E0,0E0,0E0,0E0,0E0,0E0,0E0,0E0,0E0,0E0,0E0,0E0,0E0,0E0,0E0,0E0,0E0,0E0,0E0,0E0,0E0,0E0,0E0,0E0,0E0,0E0,0E0,0E0,0E0,0E0,0E0,0E0,0E0,0E0,0E0,0E0,0E0,0E0,0E0],"parents":[2147483647,0,0,1,1,2,2,3,3,4,4,5,5,6,6,7,7,8,8,9,9,10,10,11,11,12,12,13,13,14,14,15,15,16,16,17,17,18,18,19,19,20,20,21,21,22,22,23,23,24,24,25,25,26,26,27,27,28,28,29,29,31,31,32,32,33,33,34,34,35,35,36,36,37,37,38,38,39,39,40,40,41,41,42,42,43,43,44,44,45,45,46,46,47,47,48,48,49,49,50,50,51,51,52,52,53,53,55,55,56,56,57,57,58,58,59,59,60,60],"right_children":[2,4,6,8,10,12,14,16,18,20,22,24,26,28,30,32,34,36,38,40,42,44,46,48,50,52,54,56,58,60,-1,62,64,66,68,70,72,74,76,78,80,82,84,86,88,90,92,94,96,98,100,102,104,106,-1,108,110,112,114,116,118,-1,-1,-1,-1,-1,-1,-1,-1,-1,-1,-1,-1,-1,-1,-1,-1,-1,-1,-1,-1,-1,-1,-1,-1,-1,-1,-1,-1,-1,-1,-1,-1,-1,-1,-1,-1,-1,-1,-1,-1,-1,-1,-1,-1,-1,-1,-1,-1,-1,-1,-1,-1,-1,-1,-1,-1,-1,-1],"split_conditions":[2.0214285E1,1.3428572E1,2.6714285E1,1.1428572E1,1.6571428E1,1E0,1E0,1.3E1,1.2E1,1.7E1,2.1E1,1.4285715E-1,2.5E1,2.8428572E1,7.7036457E0,9E0,1.9E1,1E1,1.1857142E1,1.1E1,1.6571428E1,1.8357143E1,2E1,2.4E1,-1.4285715E-1,2.4E1,2.2E1,2.8857143E1,2.5E1,4.6604486E0,-5.738702E-2,4.1171045E0,5E0,6.2814045E0,8E0,1.9E1,5.935551E0,6.076436E0,5.7627068E0,1.5E1,1.4E1,1.2E1,1.4E1,1.2E1,8E0,2.6E1,1.8785715E1,2.5E1,2E1,2.5E1,3.2E1,4.87706E0,2.1E1,5.151016E0,-1.4973632E-1,2.3E1,3.1E1,2.2E1,3.1285715E1,2.8428572E1,4.4E1,-2.6778135E-1,-4.5223585E-1,-1.4191817E-1,-2.6665497E-1,-3.9924747E-1,-3.4413863E-2,-1.2456035E-1,6.39771E-2,-1.0668453E-1,1.9987462E-1,-2.1889488E-1,-6.810557E-2,-1.0223674E-1,1.1301235E-1,-2.2126599E-1,-4.2251202E-1,-8.729144E-2,-2.4302916E-1,-1.793554E-2,-1.5314178E-1,-1.1250316E-1,-3.3889642E-1,-2.4202266E-1,-1.1965223E-2,4.095852E-2,-9.485036E-2,-4.975575E-2,1.12975694E-1,-1.2320459E-1,2.6331935E-2,-2.7597448E-1,-9.158253E-2,1.8507773E-1,9.731282E-2,1.7053789E-1,2.5750061E-2,-3.9842676E-2,6.813013E-2,9.806093E-2,-1.0655447E-1,2.0392263E-1,4.8373756E-1,-3.0397821E-2,2.3030446E-1,4.7495246E-2,2.0085219E-1,3.5475639E-1,1.6316323E-1,1.3812916E-1,-6.515085E-2,5.7315033E-2,3.813208E-1,2.0271292E-1,2.8617537E-1,8.765469E-2,3.281802E-1,5.4038084E-1,1.0574255E-1],"split_indices":[9,7,7,7,7,15,15,2,6,5,3,16,2,7,10,9,5,1,7,5,9,9,2,3,11,3,1,9,1,10,0,10,3,10,1,2,10,10,10,2,5,1,3,5,14,3,9,1,1,7,3,10,1,10,0,1,5,5,7,9,3,0,0,0,0,0,0,0,0,0,0,0,0,0,0,0,0,0,0,0,0,0,0,0,0,0,0,0,0,0,0,0,0,0,0,0,0,0,0,0,0,0,0,0,0,0,0,0,0,0,0,0,0,0,0,0,0,0,0],"split_type":[0,0,0,0,0,0,0,0,0,0,0,0,0,0,0,0,0,0,0,0,0,0,0,0,0,0,0,0,0,0,0,0,0,0,0,0,0,0,0,0,0,0,0,0,0,0,0,0,0,0,0,0,0,0,0,0,0,0,0,0,0,0,0,0,0,0,0,0,0,0,0,0,0,0,0,0,0,0,0,0,0,0,0,0,0,0,0,0,0,0,0,0,0,0,0,0,0,0,0,0,0,0,0,0,0,0,0,0,0,0,0,0,0,0,0,0,0,0,0],"sum_hessian":[1.394E3,6.83E2,7.11E2,3.52E2,3.31E2,3.28E2,3.83E2,2.06E2,1.46E2,1.78E2,1.53E2,3E2,2.8E1,3.38E2,4.5E1,1.52E2,5.4E1,6.5E1,8.1E1,1.23E2,5.5E1,1.03E2,5E1,1.82E2,1.18E2,2.1E1,7E0,1.1E2,2.28E2,4.4E1,1E0,3.5E1,1.17E2,5.1E1,3E0,1.7E1,4.8E1,1.2E1,6.9E1,5.2E1,7.1E1,4.1E1,1.4E1,6.1E1,4.2E1,3.3E1,1.7E1,8.1E1,1.01E2,6.6E1,5.2E1,1.2E1,9E0,5E0,2E0,9.2E1,1.8E1,2.6E1,2.02E2,1.1E1,3.3E1,2.1E1,1.4E1,2E1,9.7E1,5E1,1E0,2E0,1E0,1.5E1,2E0,3.7E1,1.1E1,1E1,2E0,5E1,1.9E1,2.3E1,2.9E1,3.7E1,3.4E1,1.4E1,2.7E1,4E0,1E1,1.3E1,4.8E1,1.9E1,2.3E1,1.9E1,1.4E1,9E0,8E0,4E1,4.1E1,1.9E1,8.2E1,5.4E1,1.2E1,4.8E1,4E0,3E0,9E0,3E0,6E0,3E0,2E0,1E1,8.2E1,1E1,8E0,2E0,2.4E1,1.37E2,6.5E1,2E0,9E0,3.2E1,1E0],"tree_param":{"num_deleted":"0","num_feature":"20","num_nodes":"119","size_leaf_vector":"1"}},{"base_weights":[3.325773E-2,-3.4883983E0,3.3594913E0,-5.1657777E0,-2.1221142E0,2.1358476E0,5.4321446E0,-3.9102461E0,-5.6569138E0,-3.0706747E0,-8.5792637E-1,1.282364E0,3.1342907E0,4.775625E0,6.713297E0,-4.086302E0,8.5251045E-1,-2.9389975E0,-5.9484787E0,-1.2400885E0,-3.482008E0,-1.06385276E-1,-2.04916E0,1.4449555E0,-1.3287148E0,3.6955268E0,1.5728273E0,5.1544657E0,2.220633E0,7.488742E0,5.1939573E0,-4.8521366E0,-3.1274066E0,-5.2663278E-2,9.1942884E-2,-3.8081415E0,1.5826766E-1,-8.193329E0,-5.457506E0,1.6653547E0,-2.3609295E0,-2.1072555E0,-3.8869154E0,7.8582954E-1,-2.1464133E0,-1.2391536E0,-3.8597457E0,7.3597515E-1,1.9632621E0,5.225298E0,-3.4026597E0,4.549721E0,2.4365735E0,3.275596E0,7.672609E-1,3.3558893E0,5.705229E0,3.3670578E0,-1.2083244E0,7.711814E0,9.77197E-1,1.8953823E0,6.5457125E0,-1.4649908E-1,-2.88981E-1,-1.7965876E-1,9.421913E-3,-2.3936589E-1,-1.5240984E-2,5.942856E-2,-1.2483125E-1,-4.1693568E-1,-8.8525176E-2,-2.534823E-1,-4.9578053E-1,1.646909E-1,-2.1589868E-1,-1.662495E-1,6.408486E-2,-2.6555225E-2,-1.7579894E-1,-1.1241722E-1,-2.2801307E-1,-1.12647815E-2,1.4528997E-1,-1.19279586E-1,1.2572351E-1,-4.0581804E-2,-1.9413729E-1,3.142913E-3,-2.632583E-1,-1.543832E-2,9.1483034E-2,1.9053157E-1,7.5229675E-2,2.9527524E-1,7.961693E-2,-2.1948428E-1,-5.714428E-2,2.8652948E-1,1.4993344E-1,1.5089278E-1,-5.0206758E-2,2.1782754E-2,2.3296309E-1,1.0004299E-1,1.3029575E-3,2.6146457E-1,1.109031E-1,2.980846E-1,1.1696314E-1,-3.184066E-2,2.0787922E-1,4.2178538E-2,-8.4545106E-2,4.3443272E-1,2.9480085E-1,5.8413174E-2,1.4876604E-2,1.5629195E-1,-1.0316677E-2,3.4571767E-1,8.916623E-2],"categories":[],"categories_nodes":[],"categories_segments":[],"categories_sizes":[],"default_left":[0,0,0,0,0,0,0,0,0,0,0,0,0,0,0,0,0,0,0,0,0,0,0,0,0,0,0,0,0,0,0,0,0,0,0,0,0,0,0,0,0,0,0,0,0,0,0,0,0,0,0,0,0,0,0,0,0,0,0,0,0,0,0,0,0,0,0,0,0,0,0,0,0,0,0,0,0,0,0,0,0,0,0,0,0,0,0,0,0,0,0,0,0,0,0,0,0,0,0,0,0,0,0,0,0,0,0,0,0,0,0,0,0,0,0,0,0,0,0,0,0,0,0],"id":14,"left_children":[1,3,5,7,9,11,13,15,17,19,21,23,25,27,29,31,33,35,37,39,41,43,45,47,49,51,53,55,57,59,61,63,65,-1,-1,67,69,71,73,75,77,79,81,83,85,87,89,91,93,95,97,99,101,103,105,107,109,111,113,115,117,119,121,-1,-1,-1,-1,-1,-1,-1,-1,-1,-1,-1,-1,-1,-1,-1,-1,-1,-1,-1,-1,-1,-1,-1,-1,-1,-1,-1,-1,-1,-1,-1,-1,-1,-1,-1,-1,-1,-1,-1,-1,-1,-1,-1,-1,-1,-1,-1,-1,-1,-1,-1,-1,-1,-1,-1,-1,-1,-1,-1,-1],"loss_changes":[1.6422826E4,1.5497373E3,1.8169893E3,1.6595508E2,4.4944836E2,3.8371118E2,1.9251465E2,7.8111084E1,1.5447852E2,1.57573E2,1.4570956E2,1.0678113E2,1.7734448E2,1.6278223E2,6.478198E1,4.797998E1,9.455833E0,6.251802E1,1.7020557E2,1.3744992E2,8.922266E1,1.855212E2,8.761206E1,8.4175415E1,2.216698E2,1.5344922E2,7.5673294E1,1.3538574E2,1.0234455E2,7.38064E1,1.3473602E2,6.5073E1,6.3998108E1,0E0,0E0,6.0287354E1,1.9379488E1,1.6051025E1,2.3157861E2,1.3114615E2,1.0961301E2,9.13878E1,1.375924E2,1.5284705E2,4.0556778E1,4.7706825E1,1.050762E2,1.1482679E2,1.0780878E2,4.8109436E-1,2.1748566E1,1.4765869E2,1.310318E2,6.8701675E1,3.6521683E1,7.1533844E1,8.791699E1,6.278578E1,8.357785E0,4.455371E1,4.198742E-2,2.9091732E1,2.8048462E1,0E0,0E0,0E0,0E0,0E0,0E0,0E0,0E0,0E0,0E0,0E0,0E0,0E0,0E0,0E0,0E0,0E0,0E0,0E0,0E0,0E0,0E0,0E0,0E0,0E0,0E0,0E0,0E0,0E0,0E0,0E0,0E0,0E0,0E0,0E0,0E0,0E0,0E0,0E0,0E0,0E0,0E0,0E0,0E0,0E0,0E0,0E0,0E0,0E0,0E0,0E0,0E0,0E0,0E0,0E0,0E0,0E0,0E0,0E0,0E0],"parents":[2147483647,0,0,1,1,2,2,3,3,4,4,5,5,6,6,7,7,8,8,9,9,10,10,11,11,12,12,13,13,14,14,15,15,16,16,17,17,18,18,19,19,20,20,21,21,22,22,23,23,24,24,25,25,26,26,27,27,28,28,29,29,30,30,31,31,32,32,35,35,36,36,37,37,38,38,39,39,40,40,41,41,42,42,43,43,44,44,45,45,46,46,47,47,48,48,49,49,50,50,51,51,52,52,53,53,54,54,55,55,56,56,57,57,58,58,59,59,60,60,61,61,62,62],"right_children":[2,4,6,8,10,12,14,16,18,20,22,24,26,28,30,32,34,36,38,40,42,44,46,48,50,52,54,56,58,60,62,64,66,-1,-1,68,70,72,74,76,78,80,82,84,86,88,90,92,94,96,98,100,102,104,106,108,110,112,114,116,118,120,122,-1,-1,-1,-1,-1,-1,-1,-1,-1,-1,-1,-1,-1,-1,-1,-1,-1,-1,-1,-1,-1,-1,-1,-1,-1,-1,-1,-1,-1,-1,-1,-1,-1,-1,-1,-1,-1,-1,-1,-1,-1,-1,-1,-1,-1,-1,-1,-1,-1,-1,-1,-1,-1,-1,-1,-1,-1,-1,-1,-1],"split_conditions":[2.0857143E1,1.2714286E1,2.8428572E1,8E0,1.6571428E1,2.5428572E1,3.1285715E1,1.2142857E0,4E0,1E1,2E1,7.5687327E0,3.1E1,3.5E1,3.4E1,1.0571428E1,3E0,1.1857142E1,9E0,1.2928572E1,1.1E1,2.2E1,6.129554E0,2.3428572E1,1.7E1,2.8E1,2.5E1,2.85E1,3.3E1,4.5E1,2.8E1,7E0,2.857143E-1,-5.2663278E-2,9.1942884E-2,1E0,2.2E1,1.6E1,1.8E1,1.7E1,1.8E1,1E1,1.1E1,5.9080253E0,2.8E1,2.5E1,1.2E1,6.4285713E-1,2E1,2.8E1,2.1E1,2.8E1,2.857143E-1,3.2E1,4E0,2.7E1,3.6E1,2.7E1,1.8E1,3.6E1,3.3E1,3.2E1,3.8E1,-1.4649908E-1,-2.88981E-1,-1.7965876E-1,9.421913E-3,-2.3936589E-1,-1.5240984E-2,5.942856E-2,-1.2483125E-1,-4.1693568E-1,-8.8525176E-2,-2.534823E-1,-4.9578053E-1,1.646909E-1,-2.1589868E-1,-1.662495E-1,6.408486E-2,-2.6555225E-2,-1.7579894E-1,-1.1241722E-1,-2.2801307E-1,-1.12647815E-2,1.4528997E-1,-1.19279586E-1,1.2572351E-1,-4.0581804E-2,-1.9413729E-1,3.142913E-3,-2.632583E-1,-1.543832E-2,9.1483034E-2,1.9053157E-1,7.5229675E-2,2.9527524E-1,7.961693E-2,-2.1948428E-1,-5.714428E-2,2.8652948E-1,1.4993344E-1,1.5089278E-1,-5.0206758E-2,2.1782754E-2,2.3296309E-1,1.0004299E-1,1.3029575E-3,2.6146457E-1,1.109031E-1,2.980846E-1,1.1696314E-1,-3.184066E-2,2.0787922E-1,4.2178538E-2,-8.4545106E-2,4.3443272E-1,2.9480085E-1,5.8413174E-2,1.4876604E-2,1.5629195E-1,-1.0316677E-2,3.4571767E-1,8.916623E-2],"split_indices":[7,7,7,2,7,7,7,11,0,0,2,8,6,0,0,9,2,9,7,9,2,1,8,9,2,2,0,9,1,4,4,1,11,0,0,17,1,1,1,2,6,12,1,8,6,6,1,11,1,0,0,0,16,6,12,1,2,6,2,1,0,5,1,0,0,0,0,0,0,0,0,0,0,0,0,0,0,0,0,0,0,0,0,0,0,0,0,0,0,0,0,0,0,0,0,0,0,0,0,0,0,0,0,0,0,0,0,0,0,0,0,0,0,0,0,0,0,0,0,0,0,0,0],"split_type":[0,0,0,0,0,0,0,0,0,0,0,0,0,0,0,0,0,0,0,0,0,0,0,0,0,0,0,0,0,0,0,0,0,0,0,0,0,0,0,0,0,0,0,0,0,0,0,0,0,0,0,0,0,0,0,0,0,0,0,0,0,0,0,0,0,0,0,0,0,0,0,0,0,0,0,0,0,0,0,0,0,0,0,0,0,0,0,0,0,0,0,0,0,0,0,0,0,0,0,0,0,0,0,0,0,0,0,0,0,0,0,0,0,0,0,0,0,0,0,0,0,0,0],"sum_hessian":[1.4E3,6.8E2,7.2E2,3.04E2,3.76E2,4.54E2,2.66E2,8.8E1,2.16E2,2.14E2,1.62E2,2.46E2,2.08E2,1.79E2,8.7E1,8.5E1,3E0,2.2E1,1.94E2,4E1,1.74E2,1E2,6.2E1,2.32E2,1.4E1,1.52E2,5.6E1,1.55E2,2.4E1,5.5E1,3.2E1,4.5E1,4E1,1E0,2E0,1.7E1,5E0,3.2E1,1.62E2,1.1E1,2.9E1,4.1E1,1.33E2,7E1,3E1,4.4E1,1.8E1,9.9E1,1.33E2,3E0,1.1E1,8.9E1,6.3E1,1.7E1,3.9E1,3.8E1,1.17E2,1.8E1,6E0,5.3E1,2E0,1E1,2.2E1,1.6E1,2.9E1,3.5E1,5E0,1.3E1,4E0,4E0,1E0,3.1E1,1E0,1.51E2,1.1E1,9E0,2E0,2.3E1,6E0,2E1,2.1E1,4E1,9.3E1,4.8E1,2.2E1,2.9E1,1E0,3.9E1,5E0,5E0,1.3E1,5.1E1,4.8E1,2.5E1,1.08E2,2E0,1E0,7E0,4E0,4.9E1,4E1,5.4E1,9E0,6E0,1.1E1,1.4E1,2.5E1,1.3E1,2.5E1,1.08E2,9E0,3E0,1.5E1,1E0,5E0,3.2E1,2.1E1,1E0,1E0,6E0,4E0,2E1,2E0],"tree_param":{"num_deleted":"0","num_feature":"20","num_nodes":"123","size_leaf_vector":"1"}},{"base_weights":[1.5784886E-2,-3.7544785E0,2.942869E0,-5.1004825E0,-2.4817836E0,1.6238707E0,4.5599265E0,-6.2154536E0,-4.5590644E0,-2.7523477E0,-5.998939E-1,1.3237145E0,4.554821E0,3.9648564E0,8.44518E0,-4.7052813E0,-7.2007527E0,-4.227291E0,-7.096504E0,-3.2642548E0,-1.9501581E0,3.3624022E0,-1.9865186E0,4.4382033E-1,2.0699618E0,2.3861134E0,8.875513E0,3.3183796E0,4.6875854E0,5.654456E0,1.05632105E1,-3.6992903E0,-5.8487225E0,-5.491437E0,-8.6529E0,-4.404057E0,-7.4651515E-1,1.6938543E-2,-7.466697E0,-1.373077E0,-3.685236E0,-1.7051376E0,-5.3118696E0,-2.5964737E-2,4.1182575E0,-3.5968354E0,1.2683152E0,2.7821913E-1,4.0315695E0,2.2716544E0,-1.5145E0,-2.904405E0,3.1371517E0,9.6776456E-1,1.0225307E1,3.7109294E0,1.8984506E0,6.06175E0,3.9947371E0,5.912851E0,5.704069E-3,1.0838024E1,9.9191666E-2,-2.2707684E-1,-7.235528E-2,-3.1675494E-1,-7.3363274E-2,-3.172464E-1,-1.6603296E-1,-9.1839746E-2,-4.5532846E-1,-1.8509468E-3,-2.266904E-1,-1.5728623E-1,1.1409195E-1,-1.0734739E-1,-3.9568368E-1,-1.00114405E-1,8.436095E-2,-1.3859478E-1,-2.365322E-1,-6.242437E-2,-1.5491064E-1,4.017687E-3,-3.1119832E-1,1.5044021E-2,-1.6991377E-2,8.669653E-2,2.5107166E-1,-2.1936584E-1,1.304246E-1,1.365376E-1,-1.7708832E-1,2.176717E-2,-1.5379043E-1,9.03173E-2,2.502717E-1,1.6618721E-1,8.211821E-2,-1.581802E-1,1.2873046E-1,8.815336E-3,-1.995039E-1,1.76947E-1,-1.6264415E-1,7.762652E-2,-5.0441744E-3,9.412408E-2,5.435671E-1,1.994985E-1,1.7743016E-2,7.513898E-2,3.0068436E-1,3.477206E-1,1.0763623E-1,2.277019E-1,1.21692054E-1,1.7091997E-1,3.3413693E-1,1.2992482E-1,5.5416435E-1],"categories":[],"categories_nodes":[],"categories_segments":[],"categories_sizes":[],"default_left":[0,0,0,0,0,0,0,0,0,0,0,0,0,0,0,0,0,0,0,0,0,0,0,0,0,0,0,0,0,0,0,0,0,0,0,0,0,0,0,0,0,0,0,0,0,0,0,0,0,0,0,0,0,0,0,0,0,0,0,0,0,0,0,0,0,0,0,0,0,0,0,0,0,0,0,0,0,0,0,0,0,0,0,0,0,0,0,0,0,0,0,0,0,0,0,0,0,0,0,0,0,0,0,0,0,0,0,0,0,0,0,0,0,0,0,0,0,0,0,0,0],"id":15,"left_children":[1,3,5,7,9,11,13,15,17,19,21,23,25,27,29,31,33,35,37,39,41,43,45,47,49,51,53,55,57,59,61,63,65,67,69,71,73,-1,75,77,79,81,83,85,87,89,91,93,95,97,99,101,103,105,107,109,111,113,115,117,-1,119,-1,-1,-1,-1,-1,-1,-1,-1,-1,-1,-1,-1,-1,-1,-1,-1,-1,-1,-1,-1,-1,-1,-1,-1,-1,-1,-1,-1,-1,-1,-1,-1,-1,-1,-1,-1,-1,-1,-1,-1,-1,-1,-1,-1,-1,-1,-1,-1,-1,-1,-1,-1,-1,-1,-1,-1,-1,-1,-1],"loss_changes":[1.542817E4,1.0340166E3,1.671185E3,1.5034814E2,1.5924731E2,3.7665906E2,7.8265137E2,1.0598804E2,1.4089746E2,1.0697266E2,2.319424E2,2.5910223E2,3.5363477E2,1.2835059E2,2.1216968E2,2.437561E1,8.900293E1,1.0869385E2,6.3084106E1,1.2789697E2,8.154825E1,2.827922E1,1.6704263E2,1.0760515E2,1.5815363E2,1.2036627E2,1.2886426E2,8.54823E1,1.1193335E2,3.0820679E1,3.744214E1,3.89534E1,2.6932373E1,3.0807373E1,6.98562E1,9.785864E1,7.9834595E1,0E0,3.2943604E1,6.4996605E1,1.167417E2,6.229132E1,3.4927704E1,4.1000107E-1,1.0674362E1,1.1445337E2,8.705052E1,9.409088E1,8.294983E0,1.289414E2,8.906545E1,1.4082058E1,7.5697784E1,2.0313509E0,3.8822144E1,1.1938989E2,5.2837402E1,1.4554333E2,7.447119E1,1.7485107E1,0E0,1.9700684E1,0E0,0E0,0E0,0E0,0E0,0E0,0E0,0E0,0E0,0E0,0E0,0E0,0E0,0E0,0E0,0E0,0E0,0E0,0E0,0E0,0E0,0E0,0E0,0E0,0E0,0E0,0E0,0E0,0E0,0E0,0E0,0E0,0E0,0E0,0E0,0E0,0E0,0E0,0E0,0E0,0E0,0E0,0E0,0E0,0E0,0E0,0E0,0E0,0E0,0E0,0E0,0E0,0E0,0E0,0E0,0E0,0E0,0E0,0E0],"parents":[2147483647,0,0,1,1,2,2,3,3,4,4,5,5,6,6,7,7,8,8,9,9,10,10,11,11,12,12,13,13,14,14,15,15,16,16,17,17,18,18,19,19,20,20,21,21,22,22,23,23,24,24,25,25,26,26,27,27,28,28,29,29,30,30,31,31,32,32,33,33,34,34,35,35,36,36,38,38,39,39,40,40,41,41,42,42,43,43,44,44,45,45,46,46,47,47,48,48,49,49,50,50,51,51,52,52,53,53,54,54,55,55,56,56,57,57,58,58,59,59,61,61],"right_children":[2,4,6,8,10,12,14,16,18,20,22,24,26,28,30,32,34,36,38,40,42,44,46,48,50,52,54,56,58,60,62,64,66,68,70,72,74,-1,76,78,80,82,84,86,88,90,92,94,96,98,100,102,104,106,108,110,112,114,116,118,-1,120,-1,-1,-1,-1,-1,-1,-1,-1,-1,-1,-1,-1,-1,-1,-1,-1,-1,-1,-1,-1,-1,-1,-1,-1,-1,-1,-1,-1,-1,-1,-1,-1,-1,-1,-1,-1,-1,-1,-1,-1,-1,-1,-1,-1,-1,-1,-1,-1,-1,-1,-1,-1,-1,-1,-1,-1,-1,-1,-1],"split_conditions":[1.8571428E1,1.2714286E1,2.7428572E1,9.714286E0,1E0,1E0,1E0,8E0,1.8E1,1.5857142E1,1.2E1,2.3571428E1,6.5283265E0,2.9714285E1,5.6987886E0,1E1,4.1115403E0,1E0,1E0,1.1E1,7.2275925E0,8E0,1.7E1,2.642857E0,8.141603E0,1.9428572E1,1E1,3.2E1,2.9E1,3.8E1,4.4E1,8.285714E0,5.503246E0,3.4572215E0,2E0,-2.7142856E0,1.1E1,1.6938543E-2,4E0,1.7E1,1.5E1,2.857143E-1,6E0,1E0,6E0,2E1,6.3245554E0,7.5687327E0,6.295385E0,2.4E1,2.8E1,2.1E1,6.4291005E0,1.6E1,6E0,6.3592105E0,7.6175766E0,3.8E1,5E0,3.9581141E0,5.704069E-3,1.9E1,9.9191666E-2,-2.2707684E-1,-7.235528E-2,-3.1675494E-1,-7.3363274E-2,-3.172464E-1,-1.6603296E-1,-9.1839746E-2,-4.5532846E-1,-1.8509468E-3,-2.266904E-1,-1.5728623E-1,1.1409195E-1,-1.0734739E-1,-3.9568368E-1,-1.00114405E-1,8.436095E-2,-1.3859478E-1,-2.365322E-1,-6.242437E-2,-1.5491064E-1,4.017687E-3,-3.1119832E-1,1.5044021E-2,-1.6991377E-2,8.669653E-2,2.5107166E-1,-2.1936584E-1,1.304246E-1,1.365376E-1,-1.7708832E-1,2.176717E-2,-1.5379043E-1,9.03173E-2,2.502717E-1,1.6618721E-1,8.211821E-2,-1.581802E-1,1.2873046E-1,8.815336E-3,-1.995039E-1,1.76947E-1,-1.6264415E-1,7.762652E-2,-5.0441744E-3,9.412408E-2,5.435671E-1,1.994985E-1,1.7743016E-2,7.513898E-2,3.0068436E-1,3.477206E-1,1.0763623E-1,2.277019E-1,1.21692054E-1,1.7091997E-1,3.3413693E-1,1.2992482E-1,5.5416435E-1],"split_indices":[7,7,7,7,15,15,